68 128
61 -0.31261414 -0.20409594 -0.067922264 -0.30109748 -0.05877329 -0.027355656 0.112276375 0.023529196 0.13673262 -0.1425142 -0.13418432 0.2762123 0.0061428132 0.118412316 0.07742228 -0.08712639 -0.2927296 -0.14515701 -0.07528191 0.19653639 0.297673 0.015202386 -0.024364052 0.24711809 0.08319199 -0.123374805 -0.28062123 0.053165145 -0.20310555 -0.27883908 0.089393504 0.14178608 0.041940957 -0.15620287 -0.1657716 -0.039292984 -0.0696962 0.1612977 0.10665843 0.24275917 -0.25762972 0.2128731 0.12361289 -0.10393645 -0.09766946 0.4942803 0.10960952 0.14967078 -0.38991413 0.016208114 0.064454846 0.26434693 0.056366753 -0.0983072 -0.025787996 -0.4908686 -0.23743095 -0.07878431 -0.23885138 -0.22990923 0.10549082 -0.053904917 0.03352461 0.045205798 -0.053520612 -0.008411732 -0.1750326 -0.1067458 0.37161252 0.16646849 0.18998484 -0.03305153 0.27466032 -0.08332928 0.2274325 -0.14742346 0.017529707 -0.1379163 0.040345967 -0.0032957192 0.26346228 -0.02866947 -0.14790307 -0.35044867 -0.19173385 -0.028068185 0.03397291 -0.13413025 -0.027105778 0.09547206 0.19182092 0.32057482 -0.013924084 0.31972736 -0.23984586 0.2521532 0.26052934 0.0910363 0.027714517 0.06317435 -0.052981596 0.04021663 -0.21420516 -0.01309273 0.06378652 0.08915517 0.23383372 0.02609129 -0.03542037 0.09906047 -0.17700419 0.03732974 -0.09271628 -0.030005347 -0.17989284 0.12479413 -0.10901918 0.2111962 -0.11123566 0.026698548 -0.019924868 -0.09059336 -0.100083336 -0.013172949 0.0011929142 -0.05520828 -0.059745472 -0.06661435
47 -0.38290504 -0.14991911 -0.087067634 -0.3115314 -0.12835099 -0.042835694 0.10889447 0.039251793 0.08892605 -0.0029372089 -0.079539485 0.30032015 0.055202648 0.041307747 0.011347288 -0.05902124 -0.22730607 -0.16850238 -0.08405019 0.2383128 0.28344798 0.05777285 -0.06718213 0.2668898 0.11919926 -0.11112427 -0.2623313 0.054637894 -0.21240817 -0.2543496 0.14159127 0.0862753 0.0022636247 -0.23044121 -0.15085606 -0.031634312 -0.051972043 0.2667966 0.072046116 0.17175215 -0.26387784 0.3122644 0.16826604 -0.06373331 -0.10640097 0.3478302 0.11607993 0.16826196 -0.3923312 0.03021292 0.085465774 0.2627526 0.01643552 -0.21735357 0.06676425 -0.5479628 -0.21774791 -0.08674822 -0.21826768 -0.24545456 0.09579053 -0.10923928 0.049871717 0.009163355 -0.116825834 -0.03854642 -0.19655912 0.0030557406 0.33397055 0.15552974 0.18239023 0.014367368 0.21726735 -0.06552455 0.20336674 -0.123782486 -0.014733088 -0.030774133 0.074136905 0.04391561 0.20375776 -0.04065753 -0.09253305 -0.28309706 -0.17820431 0.03546163 0.088790916 -0.09576412 -0.0077330954 0.10321401 0.12197519 0.27508113 -0.11751508 0.25819328 -0.1910092 0.14780945 0.26367024 0.05561542 -0.037723556 0.07582051 -0.061812725 0.113299474 -0.14340334 0.033328246 0.035889063 0.08530262 0.19422355 0.0017956153 0.009673012 0.13192922 -0.109938174 0.051748145 -0.113914005 0.041125167 -0.15889928 0.230326 -0.22470343 0.16849709 -0.0454076 -0.00020723813 0.04643106 -0.13862795 -0.09683796 0.0013120436 0.014127588 -0.06637049 -0.07386327 0.010870673
46 -0.38181472 -0.2172924 -0.043001175 -0.26454267 -0.1405199 -0.019878274 0.16030684 0.0074347206 0.13103274 0.00037755392 -0.08507904 0.33165306 -0.01608876 0.097046815 0.10486487 -0.036088903 -0.27194047 -0.16434161 -0.07367001 0.21108656 0.3043451 0.08848711 -0.06261493 0.3214089 0.10723478 -0.16058925 -0.23752525 0.059503254 -0.23843291 -0.28076705 0.11690383 0.10338204 0.032123547 -0.18893248 -0.14548203 -0.024681654 -0.07959292 0.19844797 0.10901918 0.19565573 -0.28593987 0.297747 0.23260869 -0.10439857 -0.09705534 0.45374054 0.13440067 0.13416259 -0.45190197 0.009675083 0.0763012 0.36797628 0.02952273 -0.1733941 -0.007274537 -0.54162145 -0.23973113 -0.101904824 -0.27924982 -0.21964811 0.130175 -0.16241804 0.028188711 0.0286595 -0.12691613 -0.07255117 -0.2279944 -0.07622992 0.35250497 0.15177727 0.2109084 -0.00773208 0.2613766 -0.054228157 0.24398555 -0.15294175 -0.018471593 -0.048736066 0.032428402 0.028563196 0.19830298 -0.042821664 -0.09912341 -0.34632617 -0.2061831 0.021827536 0.028779821 -0.12785903 -0.041774616 0.12359612 0.19560829 0.36118475 -0.047601417 0.3513235 -0.2237882 0.2092995 0.28765324 0.08626384 -0.011631832 0.073144846 -0.08092536 0.08699422 -0.26778463 -0.042983048 0.05365259 0.10614732 0.2809764 0.06190964 0.040354107 0.13487592 -0.11726722 0.004952802 -0.10597684 -0.014348954 -0.14790379 0.22078723 -0.15280722 0.21762007 -0.12617107 0.05189049 0.00010450964 -0.15048635 -0.04005868 0.04655136 0.026111789 -0.13029635 -0.15596993 0.026285112
16 -0.34346938 -0.253052 -0.01945583 -0.3407209 -0.07046 -0.08899068 0.07865497 -0.0045211967 0.11979652 -0.08649281 -0.19716154 0.29783058 0.0076640323 0.0693757 0.112271875 -0.105084516 -0.31174147 -0.21445616 -0.0556953 0.17991047 0.319186 0.06895238 -0.009884626 0.26639533 0.10172208 -0.152866 -0.2830354 0.086839795 -0.17190865 -0.36706617 0.11031974 0.1062113 -0.016577613 -0.26735073 -0.2174269 -0.041195244 -0.0015900201 0.16032648 0.056418926 0.13831075 -0.29932314 0.34417656 0.20709601 -0.09506984 -0.08324949 0.51227534 0.11691541 0.19889928 -0.46932834 0.089763165 0.04446371 0.3288468 0.064050406 -0.1516371 -0.043635547 -0.5526913 -0.2157051 -0.03845324 -0.27345875 -0.25493634 0.11289553 -0.13198864 0.060770318 0.016503867 -0.098434925 -0.06739968 -0.24036145 0.031845577 0.36653054 0.15491854 0.21398354 -0.05512783 0.25929558 -0.12148707 0.23148154 -0.17799672 0.124213226 -0.15449874 0.068419695 0.060135767 0.25006044 -0.099412985 -0.12635024 -0.3395774 -0.18509729 0.040310152 0.1271364 -0.09204477 0.009678351 0.09551159 0.13247485 0.36360902 -0.12658292 0.29049292 -0.25181568 0.20936543 0.30413726 0.05628358 -0.0049491855 -0.012118712 0.0003462928 0.16554515 -0.1753581 -0.07072826 0.05655353 0.15545078 0.2311835 0.0025565503 -0.00783007 0.20086572 -0.20322749 0.090962276 -0.20475942 -0.02255279 -0.15989792 0.22123863 -0.123784676 0.22188024 -0.09277945 -0.08647893 -0.029161531 -0.10232797 -0.14424178 -0.05997413 0.020857615 -0.007339174 -0.1205349 -0.054135833
23 -0.23283997 -0.13779534 -0.10693606 -0.32523108 -0.17267688 -0.0564486 0.1296498 0.007270629 0.12986168 -0.10226533 -0.06663971 0.2960549 0.10223343 0.12280121 0.0005246601 -0.061247047 -0.29405877 -0.13395336 -0.04421453 0.26091054 0.29271606 -0.008245766 -0.08928762 0.19131297 0.043171506 -0.0692092 -0.23645714 0.03478849 -0.17083563 -0.23577236 0.12872975 0.08836934 0.056563362 -0.17879088 -0.2511626 -0.006395247 -0.059220098 0.19346532 0.06561819 0.16180865 -0.22113012 0.22204372 0.15134911 -0.054616187 -0.084717825 0.40790054 0.049214207 0.16791412 -0.38904393 -0.03239597 0.029972026 0.23521298 0.08058309 -0.16912416 0.01742035 -0.48388055 -0.21810965 -0.006224969 -0.18751317 -0.21876293 0.13494205 -0.012681732 0.049107578 0.016132263 -0.12183114 0.028751003 -0.13315576 -0.013899861 0.3741578 0.18295497 0.26365554 -0.03063173 0.32236415 -0.061042435 0.19029774 -0.11427803 0.022419352 -0.14725125 0.150265 0.03787889 0.21818854 -0.06286126 -0.0821102 -0.2824655 -0.18519309 -0.013555615 0.08584007 -0.063864514 0.025434097 0.050198384 0.18997227 0.3390188 -0.09782195 0.22848086 -0.22567928 0.11310546 0.29235092 0.04371031 0.011472214 0.14533675 0.11889537 0.079295434 -0.16051146 -0.020730734 0.08161447 0.05148994 0.24663922 0.061290417 -0.058124103 0.11874177 -0.22706896 -0.041899525 0.0016575338 -0.051629897 -0.13077702 0.16332793 -0.10300558 0.21762769 -0.048419863 -0.11105936 0.08141614 -0.110216774 -0.09361701 0.028761048 -0.008543283 -0.09750728 0.012064727 -0.03480258
21 -0.3360025 -0.20539851 -0.13263588 -0.42517218 -0.1646745 -0.106479615 0.037754588 -0.04528102 0.15916987 -0.06728677 -0.11162951 0.295615 0.037910376 0.07090954 0.00037415035 -0.07924652 -0.2693712 -0.14915961 -0.050001465 0.24258488 0.4116344 0.033267815 -0.09484834 0.27507427 0.06355834 -0.09732766 -0.20140211 0.04456239 -0.17262048 -0.3188139 0.14373186 0.045453794 0.052206736 -0.19879015 -0.2408562 -0.09491919 -0.044507693 0.24401595 0.07949848 0.19882557 -0.301722 0.31095946 0.07158943 -0.072096266 -0.111327864 0.48111868 0.12968308 0.18062879 -0.370652 0.0017954552 0.084130414 0.2545245 0.091541775 -0.24069516 0.049231276 -0.5032701 -0.23148201 -0.11928231 -0.20802528 -0.24438512 0.07820172 -0.03586265 0.04001368 0.013994946 -0.10409556 -0.013469776 -0.19244316 0.0043483977 0.3410897 0.13338108 0.19433737 -0.04200132 0.23901556 -0.072171845 0.2145444 -0.14473088 0.012994494 -0.14593951 0.08668303 -0.023737757 0.2319164 -0.084232345 -0.09783274 -0.38292766 -0.26589692 -0.03621528 0.11798922 -0.10396982 -0.0057166247 0.10051727 0.20030895 0.30186132 -0.1171885 0.26843056 -0.20035914 0.12277558 0.29111943 0.08908739 -0.0042271977 0.089687124 -0.0027884115 0.13203952 -0.16104831 0.057405807 0.12601249 0.0983308 0.21101929 -0.03834857 -0.047922853 0.11932876 -0.13547125 0.10090586 -0.05682724 0.01972479 -0.16033 0.19520798 -0.17226091 0.20017914 -0.06582585 -0.047927883 0.05089924 -0.10252491 -0.14091417 -0.043735735 0.021595655 0.0019213106 -0.041724194 -0.11013981
15 -0.27062964 -0.25307807 -0.07080706 -0.3533192 -0.14959268 -0.04914923 0.109212525 -0.04635388 0.1639666 -0.057596892 -0.04221411 0.2810503 0.039990094 0.1558679 0.016976766 -0.045791615 -0.23666534 -0.14942865 -0.091513164 0.16821684 0.3274724 0.031948 -0.13362816 0.22313268 0.0586784 -0.07814785 -0.1723527 0.052738503 -0.11990861 -0.29609096 0.07932797 0.06393686 0.099403106 -0.19886449 -0.2165299 -0.040312354 -0.052541018 0.24226405 0.11602435 0.16717614 -0.29988205 0.2255184 0.116388336 -0.068328574 -0.12708104 0.43692258 0.06272405 0.15079515 -0.352776 -0.060301043 0.009398073 0.2596077 0.105673924 -0.19100052 0.061603293 -0.5208153 -0.24607271 -0.16061847 -0.1902911 -0.20517959 0.13792026 -0.0399022 0.0170479 -0.06304101 -0.11604152 0.05324635 -0.18351921 0.0008657276 0.31730232 0.14219588 0.21759903 -0.03599551 0.28393388 -0.14260796 0.17554751 -0.15635493 0.050486885 -0.16776927 0.04677361 -0.0049387803 0.20754647 -0.10751587 -0.07666188 -0.29276222 -0.27796435 -0.06677882 0.11891793 -0.10769235 0.021777302 0.07921912 0.1498254 0.30930346 -0.037840478 0.23713867 -0.24569012 0.15149216 0.31080043 0.070119634 0.054805305 0.14056298 0.035470456 0.1419148 -0.19071378 0.04082051 0.113049805 0.115979366 0.2771641 0.04324995 -0.0267402 0.103742115 -0.17642173 -0.017579352 -0.033876576 -0.069490284 -0.08537788 0.15711874 -0.10299607 0.22849855 -0.06589893 -0.010119404 0.081058174 -0.09180452 -0.07121118 0.0022167037 -0.08794413 -0.0095354775 -0.008300119 -0.01456583
66 -0.26977327 -0.26489913 -0.065956 -0.32498148 -0.11627823 -0.05420008 0.10645941 -0.009013816 0.13346018 -0.109802194 -0.2064763 0.26191726 0.06755297 0.08521214 0.049388643 -0.09402666 -0.22036134 -0.14384115 -0.041510496 0.24033792 0.2985439 0.016988074 -0.07477976 0.25239927 0.07933533 -0.08154674 -0.20940389 0.116044894 -0.13126175 -0.2915531 0.11238911 0.07436308 0.031948965 -0.18835987 -0.20282854 -0.008683633 -0.019168127 0.17737524 0.11927681 0.122907564 -0.2663182 0.24401003 0.097591095 -0.07898183 -0.0799642 0.4578297 0.045192644 0.15062152 -0.3354775 0.039847538 -0.014486844 0.27134806 0.101332106 -0.15900964 0.04334669 -0.47296497 -0.22779824 -0.09455055 -0.27240798 -0.19482262 0.08868919 -0.09870708 0.10335014 -0.037191164 -0.039678726 -0.023846297 -0.24795291 -0.0059231706 0.28877935 0.14936525 0.20806296 -0.0448688 0.22175547 -0.10102799 0.22459413 -0.11694448 0.05559605 -0.14727233 0.0724099 0.06052835 0.2067197 -0.10594517 -0.149671 -0.29101458 -0.20418936 -0.033280324 0.07259983 -0.09982711 0.017581081 0.08768053 0.19335824 0.31021556 -0.0552834 0.26018476 -0.27643055 0.21089728 0.28863752 0.11243876 0.06906859 0.08013692 -0.018503927 0.15138061 -0.25608715 0.012477241 0.11344273 0.13918474 0.25702396 0.0135953305 -0.05824802 0.15106972 -0.16771862 0.019069683 -0.1138995 -0.08686343 -0.10092341 0.15081212 -0.13121136 0.18952985 -0.097677894 -0.021252299 -0.028474474 -0.11093069 -0.07351753 -0.044803835 -0.013787771 -0.039667644 0.009058672 -0.08074995
19 -0.28067774 -0.19115987 -0.010945868 -0.34570226 -0.16109261 -0.00917019 0.12355103 0.041505564 0.18177374 -0.12496804 -0.1721051 0.27852526 0.04312085 0.07089865 0.061911598 -0.060269814 -0.27788648 -0.230879 -0.042283803 0.22200969 0.34178823 0.058554355 -0.09666161 0.3629269 0.10341817 -0.12279766 -0.23120223 0.121789634 -0.18417884 -0.32125193 0.11489761 0.06505082 0.06027839 -0.2640962 -0.18110195 -0.08466402 -0.111905664 0.19463615 0.13657607 0.17444411 -0.2591077 0.29501653 0.075759254 -0.12320481 -0.03487377 0.4913007 0.08555256 0.16942635 -0.38433012 0.09748342 -0.003729563 0.30080563 0.07659393 -0.12447449 0.037110485 -0.497257 -0.2871978 -0.11475789 -0.16754875 -0.24941671 0.08312522 -0.13439977 0.035178494 -0.054539133 -0.078102805 -0.015788283 -0.19292814 -0.057399396 0.30165234 0.17696533 0.1735934 -0.07111759 0.27760834 -0.0835865 0.24692632 -0.18818401 0.02586653 -0.1909534 0.023704309 -0.050830536 0.19284903 -0.04657877 -0.0803215 -0.36918113 -0.21280773 -0.042627994 0.120914534 -0.16947277 -0.0035402214 0.08172683 0.15875958 0.29440787 -0.01828862 0.33766186 -0.31500286 0.27718964 0.31146836 0.0804291 0.020448124 0.060012285 -0.01844408 0.16914238 -0.22360899 -0.038621917 0.10811074 0.17529945 0.25029013 -0.0472474 -0.07932886 0.17901333 -0.14600737 0.0030851772 -0.12872308 -0.0900948 -0.17198715 0.21805258 -0.123120494 0.25265694 -0.12694976 -0.006521547 0.0013921398 -0.06446385 -0.14108962 -0.10721765 -0.038280386 -0.07722436 -0.11205219 -0.09772278
64 -0.28815126 -0.21205772 -0.043377407 -0.30675298 -0.1490832 -0.06087391 0.0951102 -0.0030655558 0.13565451 -0.11144733 -0.060004395 0.24996555 0.07368085 0.094096206 0.03491623 -0.052950438 -0.27012157 -0.13657607 -0.007425502 0.19899115 0.2728724 -0.01858612 -0.063406006 0.2561149 0.09368926 -0.098048195 -0.17263617 0.08246677 -0.13662219 -0.28218526 0.051512532 0.08413257 0.017667934 -0.15825945 -0.2027051 -0.013687392 -0.03676954 0.23642665 0.11992571 0.17547041 -0.27604163 0.17015086 0.084521875 -0.048071194 -0.08783513 0.45780215 0.039533567 0.13169718 -0.30706322 0.012217956 -0.053910516 0.24299987 0.11711874 -0.18652678 0.02360671 -0.49461228 -0.23432967 -0.13087118 -0.24739517 -0.19125491 0.13581967 -0.06681567 0.013668146 -0.06459691 -0.040428057 -0.018271994 -0.20468459 -0.11763702 0.30525303 0.18033136 0.22824493 -0.101422876 0.3206228 -0.120389424 0.22892363 -0.15492225 0.027961856 -0.16374062 0.087256946 0.04241596 0.1992958 -0.09271756 -0.18696648 -0.2938698 -0.22637637 -0.01692571 0.0264943 -0.21373925 0.039392404 0.012864924 0.17780711 0.28956515 -0.056104835 0.30485943 -0.2617105 0.21725969 0.2788118 0.052823123 0.0856411 0.08007325 -0.06899533 0.09698115 -0.1989731 0.078040354 0.07212957 0.0903305 0.22695811 0.024657924 -0.036634713 0.10653786 -0.14698988 -0.0107818395 -0.045194283 -0.0494694 -0.1232295 0.17797367 -0.15846284 0.27845716 -0.14589417 0.020654669 -0.009884359 -0.0135393245 -0.119715475 -0.030916128 -0.054916136 -0.019264176 0.010298613 -0.032227397
29 -0.13626935 -0.105367735 -0.08593282 -0.3784479 -0.03967225 0.20174366 0.25598794 -0.115355335 -0.18568681 -0.14198752 0.13329706 0.47662088 0.3231422 0.23056829 -0.42212915 -0.2930865 -0.18751049 -0.12960464 0.37500873 0.2800994 -0.20897576 -0.23321849 -0.3012431 0.46571812 0.16923028 -0.043429647 -0.3268546 0.1154693 0.08680915 -0.020094173 0.10981479 -0.091871135 0.06970921 -0.105923206 -0.34981418 -0.13935608 0.029241426 0.22097635 0.37087962 -0.32104313 -0.039183386 -0.034407184 0.15205854 -0.12972589 -0.29636362 0.022481479 -0.22076735 0.003493075 -0.10644834 -0.13198592 -0.15413226 -0.048489824 -0.058140155 0.039112166 0.0014850516 0.06326431 -0.04132187 -0.37370506 -0.26557156 0.0024669052 -0.23493372 -0.2222649 -0.03678945 -0.081659295 -0.11800215 0.028160531 -0.23673886 0.1441641 -0.008594048 -0.0954165 -0.16338179 -0.16112219 0.023552267 -0.33373484 -0.1554798 -0.03813765 0.37970823 -0.2759354 0.20707561 0.22188799 -0.13985077 -0.09580993 -0.12960191 0.10372132 0.021469805 0.021743234 0.3040118 -0.12894708 0.23445943 -0.24022488 -0.15444565 -0.093970664 0.06029442 0.28346458 -0.1276449 0.15867122 0.042260524 0.06906951 -0.028130904 -0.047763787 -0.24030052 0.2620608 -0.05731377 -0.086794265 0.055931408 0.38920683 -0.1491572 0.028922115 -0.18167174 0.3266035 0.0152399605 -0.16124044 -0.11468004 -0.35630906 -0.30043188 -0.074645214 -0.15611213 0.29787838 -0.090952225 0.2619389 -0.0033991844 0.02632841 -0.2165238 -0.075687446 -0.0829675 0.21974336 -0.024728494 0.045944735
56 -0.049415503 -0.09642217 -0.108369686 -0.2522513 -0.043311026 0.19874364 0.24917646 -0.08526016 -0.18617085 -0.07860648 0.14503153 0.40951195 0.38128912 0.23941779 -0.4230652 -0.22836468 -0.12616223 -0.15107222 0.37716052 0.34229407 -0.31506452 -0.20959507 -0.32555777 0.4446593 0.2499693 0.0064135045 -0.22986327 0.1029763 0.012844557 0.06179168 0.04773 -0.060142454 0.0754088 -0.16574165 -0.30500558 -0.08171005 -0.010289922 0.2671383 0.31269613 -0.36631674 -0.05837934 -0.11180544 0.2386903 -0.13852692 -0.36242628 -0.11118213 -0.22901593 -0.002424118 -0.07791892 -0.119829424 -0.15736428 0.014868824 -0.121676266 0.021786202 0.10046106 -0.042936914 -0.02731582 -0.37426496 -0.2820114 -0.06679265 -0.22955218 -0.23632093 0.0104990825 -0.10562591 -0.08682558 0.017915335 -0.2539714 0.17460041 -0.10405593 -0.11822408 -0.12513857 -0.1009987 0.052054442 -0.35308194 -0.15802911 -0.114791095 0.3467025 -0.17025469 0.23783508 0.3427274 -0.124510236 -0.11252698 -0.046474874 0.18347456 0.05828665 0.016111245 0.25477168 -0.076991215 0.20336476 -0.24181646 -0.23622711 -0.10388357 0.060692605 0.24655138 -0.14436744 0.090231046 0.05050586 0.035644528 0.03312161 0.018062849 -0.23100415 0.21919578 -0.03225294 -0.10652981 -0.0074163284 0.46021774 -0.11977899 0.13598247 -0.10403515 0.28626835 -0.016891908 -0.24528916 -0.086900346 -0.28653604 -0.18958732 -0.11737002 -0.099256665 0.20771672 0.004468427 0.27978814 0.060984187 0.008437202 -0.20919597 -0.07607323 -0.14140676 0.22066659 -0.02709095 0.10011983
63 -0.014726202 -0.0028342272 -0.23889172 -0.04955942 0.29366288 -0.027843762 -0.053733695 -0.066432044 0.09752956 -0.03725226 0.12700862 0.07932525 0.026637986 0.10582584 -0.095253415 -0.087653734 -0.02237123 0.015293498 0.06352014 -0.07058333 -0.16940938 -0.10948948 0.014028155 -0.07331437 -0.004766873 0.06927067 -0.17630483 0.010421095 -0.015589217 0.20226592 0.10004423 0.17211583 0.047989774 -0.06190691 0.012858683 0.13237286 -0.0126106385 0.15142126 -0.2360453 -0.1222947 0.015397974 0.05120295 0.024248483 -0.27694067 -0.26724 0.0009826947 0.10631843 0.12519468 0.21739861 -0.072996445 -0.43816173 0.1411555 0.1108757 -0.0052615204 -0.10513847 -0.15977496 0.33019632 -0.12438991 -0.13683681 -0.038177993 0.14249201 -0.10542046 -0.17670146 0.19414169 -0.2052341 0.10031282 0.03110243 -0.044733517 -0.15577815 -0.004960651 0.0049608825 0.23749916 -0.115612455 0.044915102 0.26480618 0.07057214 -0.019176623 -0.1368763 0.03401484 0.26364908 -0.01290738 0.0072729765 0.15595317 0.13716617 0.095568895 0.146926 0.17522168 -0.11373087 -0.09234619 -0.2858145 -0.101846464 -0.0419795 0.20673805 -0.12405284 -0.033870388 -0.10219405 -0.029340213 -0.23596793 0.12870954 -0.013233757 -0.18429212 0.122459576 -0.12203736 0.15726377 -0.025412522 0.27654743 0.22083306 0.12420027 0.10370564 0.09072456 -0.17644167 -0.050413713 -0.21229787 0.030140787 -0.06512063 -0.1258619 0.046308283 -0.25023806 0.30532983 -0.33880883 0.20123315 -0.13992976 -0.2151914 -0.22439285 -0.057759393 0.025444053 -0.21429741 -0.18209362
53 -0.0506681 -0.028930793 -0.27338895 -0.102660105 0.2599991 0.022123223 -0.033739343 -0.04132768 0.11556697 -0.10840237 0.079355985 0.112931885 -0.021922186 0.10057177 -0.09280133 -0.10274492 -0.04392189 0.0021717865 0.08978372 -0.068339124 -0.11466921 -0.09534061 -0.03003125 -0.048167545 -0.014469336 0.022328407 -0.24117923 -0.02639391 -0.0738844 0.11514163 0.0988487 0.15922418 0.03925064 -0.04384123 -0.008516423 0.076956026 -0.02807605 0.17460419 -0.20636417 -0.057721566 -0.018982615 0.05919759 -0.0037636077 -0.23293889 -0.24552417 0.061647993 0.15606433 0.100411616 0.19484079 -0.10295774 -0.42701545 0.1042126 0.106477454 0.021363646 -0.11259365 -0.19577062 0.24162042 -0.12917784 -0.07758905 -0.0542278 0.12486463 -0.02876644 -0.17954798 0.2117916 -0.20742504 0.11540846 0.061237384 -0.027337361 -0.089490734 -0.06283607 -0.022277217 0.22368662 -0.12908772 0.03800414 0.22762771 0.098642565 0.013763928 -0.16998193 0.039122827 0.18525039 0.015091946 0.04485107 0.092724994 0.13414502 0.046819203 0.11528201 0.20038678 -0.10398124 -0.06344167 -0.23709485 -0.07736506 -0.041543536 0.20537312 -0.08580809 -0.04856136 -0.06856182 0.007330266 -0.27068537 0.12026139 -0.01875526 -0.24441619 0.10652253 -0.11901784 0.10578068 -0.029292444 0.20550442 0.1478405 0.040971197 0.036186926 0.021721348 -0.1506297 0.008861075 -0.16852762 -0.004836444 -0.1251612 -0.07495994 0.02150095 -0.10906066 0.21080264 -0.19838181 0.18922503 -0.039524496 -0.22519076 -0.19757436 -0.11539092 -0.006507103 -0.15989113 -0.11837023
11 -0.14694706 -0.065296605 -0.21356332 -0.13162835 0.26307797 -0.01757725 -0.044158168 -0.04885524 0.14512855 -0.098293595 0.11516457 0.20385794 0.085262306 0.17517284 -0.13840139 -0.09595936 -0.03939508 0.010077313 0.09719085 -0.06262684 -0.17010435 -0.2105283 -0.08547105 -0.08674504 -0.013504392 0.10971175 -0.17264558 0.045050405 0.03836178 0.15841313 0.12835023 0.18188281 0.09442251 -0.02444651 0.10769591 0.11248926 -0.050996188 0.22183944 -0.100026935 -0.08139227 0.030558242 0.022345627 -0.0404688 -0.26942798 -0.2792361 -0.011063233 0.12776639 0.11170766 0.23232394 -0.07597516 -0.4334176 0.09672387 0.094277546 -0.027020933 -0.06367956 -0.14887348 0.27126583 -0.1639187 -0.11766659 -0.10713777 0.17451197 -0.10074685 -0.16735089 0.17011915 -0.20313044 0.2099439 0.020227263 -0.035636164 -0.12647459 0.022308445 -0.06009076 0.24127485 -0.18926272 0.05796663 0.28401044 0.21740872 0.017556634 -0.13395667 0.0021998794 0.22011226 0.015870932 0.032488268 0.08333236 0.1565685 -0.030903263 0.058740836 0.23266017 -0.11395286 -0.09289107 -0.2901167 -0.11719834 -0.06765926 0.22049764 -0.13271655 -0.013263428 -0.1286147 -0.04078932 -0.30061397 0.1889633 0.059729442 -0.29152712 0.086845525 -0.09302529 0.23289703 -0.039935563 0.14243326 0.19203635 0.04493509 0.07186772 -0.036552545 -0.19387913 -0.00066295406 -0.20239407 0.07164307 -0.033907074 -0.18817326 -0.09924857 -0.22190481 0.21926737 -0.33813775 0.15810691 -0.1517076 -0.153291 -0.22769819 -0.13903123 0.013777269 -0.1568402 -0.21632594
40 -0.09233859 -0.07163174 -0.1349365 -0.1790255 0.2543853 0.0003407456 -0.14833619 -0.1833603 -0.08123054 -0.08366278 0.20585275 0.082878865 0.032063533 0.04454419 -0.14916147 -0.17455527 -0.1885283 -0.04711393 0.13945824 -0.12480003 -0.10865996 -0.11917793 0.10842002 0.037104648 -0.05773519 0.054483596 -0.07566721 -0.026664404 0.005706988 -0.0046543707 -0.06609787 0.13493206 -0.17943579 0.042660713 0.005127139 0.11250428 -0.04021454 0.26142263 0.12045694 -0.11693869 -0.15310283 -0.061111506 0.13331805 -0.011571116 -0.32900184 0.042865258 -0.04065188 0.014518077 0.13524482 -0.07503542 -0.355788 0.046377454 -0.11367624 0.009276493 -0.06837119 -0.19614789 0.22386013 -0.14750212 -0.2623602 0.106733315 0.0850058 0.023517923 -0.17083722 0.2603227 -0.25736642 -0.014656179 -0.10011696 -0.11332784 0.109265 0.03373751 0.056297746 0.18955697 -0.009776072 -0.15978903 0.10030325 -0.047434364 0.21068859 -0.011125917 0.035189822 0.35343722 -0.050892577 0.0074992995 -0.15189853 -0.013451136 -0.04971669 0.18634003 0.0878244 -0.17048208 -0.10120298 -0.23955064 -0.028681261 -0.15077905 0.027592955 -0.078106456 0.14556044 0.038242407 -0.030169677 -0.14468981 0.13740596 -0.12557505 -0.2527973 0.0033257252 -0.026779165 0.1851457 0.021597128 0.16059701 0.2762947 0.20585379 0.08140465 -0.107770406 -0.18034312 -0.08838312 -0.32442206 0.17842388 -0.118847966 -0.15412936 -0.10445882 -0.11923483 0.14840113 -0.123294264 0.015354277 -0.1685906 -0.18004738 -0.07129967 -0.016529068 0.25666314 -0.017356234 -0.1432911
5 -0.06653107 -0.025273675 -0.22507448 -0.047782574 0.31625408 -0.008138102 -0.053103 -0.029781505 0.12698157 -0.06470569 0.14431179 0.08549059 0.040459696 0.137437 -0.09685732 -0.08991746 0.025893347 -0.00192747 0.07090732 -0.030817432 -0.21899627 -0.12696853 -0.020119429 -0.16302852 -0.007984427 0.07794268 -0.20919554 0.07875035 0.06562979 0.20529531 0.07813585 0.18416937 0.096710145 0.034789886 0.0152663095 0.0979384 -0.010139957 0.19371705 -0.24839048 -0.047595948 0.0052168807 0.02400983 0.022553533 -0.27381662 -0.34243315 0.0013944086 0.16343063 0.051597487 0.23389506 -0.12049557 -0.45406777 0.15819222 0.117563285 -0.01276089 -0.1730472 -0.170927 0.29945493 -0.093958154 -0.14993812 -0.06671678 0.14389041 -0.054241408 -0.22213049 0.23018754 -0.16239962 0.12915811 0.06455067 -0.06629186 -0.17404558 -0.06578793 0.019136695 0.26450488 -0.1183119 0.03504621 0.27502558 0.13525446 -0.015554176 -0.14149293 0.06235935 0.27923897 0.042694174 0.025729321 0.13048722 0.23171972 0.060386326 0.13915963 0.22300744 -0.106091715 -0.054482494 -0.30612457 -0.1292774 0.055066865 0.22559942 -0.10346383 -0.069291495 -0.12227407 -0.062265538 -0.29218316 0.23658139 -0.019726327 -0.28346184 0.12606502 -0.190013 0.1767841 -0.06300795 0.29349282 0.31282195 0.18475015 0.02669974 -0.031410795 -0.19752733 -0.04052411 -0.18241751 0.07774702 -0.03463765 -0.09121837 0.010998606 -0.23423092 0.27139962 -0.3488035 0.20829907 -0.19671921 -0.23422134 -0.25997323 -0.13464083 -0.027473517 -0.19295293 -0.18481193
49 -0.14782478 -0.17022102 -0.17023976 -0.15043162 0.22903919 -0.104702696 -0.19378217 -0.23008636 -0.033932507 -0.09060867 0.18243653 0.13790575 0.08907371 0.06475991 -0.13656959 -0.15933107 -0.27671766 -0.08353787 0.20194739 -0.10383193 -0.093004085 -0.11558064 0.13612275 0.049753048 -0.05009098 0.08204591 -0.052453224 -0.05604531 -0.085060745 -0.029333176 -0.10263164 0.1991295 -0.15975235 -0.013911653 0.023058321 0.10378359 -0.034847748 0.2418205 0.022519715 -0.10846962 -0.09738391 -0.07061537 0.19375055 -0.039473955 -0.33671993 0.051275928 0.011602415 0.04477953 0.108160116 -0.08288123 -0.38122666 0.12707907 -0.097974256 -0.046250015 -0.11326354 -0.22791752 0.21766368 -0.05722547 -0.2442527 -0.0061470475 0.10198385 -0.033488512 -0.17496769 0.27917606 -0.2867873 -0.08654193 -0.04997093 -0.11053521 0.105540656 0.03740498 -0.017569793 0.16936047 0.027686417 -0.12161289 0.051242877 -0.060329854 0.24147768 0.0061142347 0.09772483 0.3455728 -0.043692496 0.02298449 -0.046529293 0.004865337 -0.082657665 0.20403133 0.08301491 -0.123573795 -0.07332001 -0.26827604 -0.06362298 -0.17426725 -0.027901005 -0.06668934 0.22879353 -0.029918833 -0.069234215 -0.27320963 0.2053551 -0.13563114 -0.28085575 -0.053065356 0.077488236 0.14018026 -0.07948033 0.18727264 0.22531693 0.22540224 0.13597718 -0.13365762 -0.26676357 -0.12531587 -0.33017257 0.2569912 -0.12778859 -0.26693997 -0.11459922 -0.1530557 0.22423482 -0.1863943 0.062759295 -0.10364051 -0.20100495 -0.20273142 -0.016422532 0.26504493 -0.1302923 -0.118610255
18 -0.0773677 -0.052948702 -0.20061024 -0.18658954 0.29796755 -0.0041878936 -0.18294474 -0.16283596 0.009467457 -0.0072967806 0.22287822 0.13820514 0.076511614 0.07507201 -0.11091106 -0.19326462 -0.16945635 -0.012219571 0.17146969 -0.124842696 -0.17869246 -0.16466649 0.12739272 -0.013021738 -0.018648474 0.08196397 -0.08410421 -0.020752847 0.0085095875 0.07572589 -0.02726814 0.21737425 -0.121576115 0.0033771736 0.0048523466 0.08367247 -0.080789484 0.15975007 0.011005649 -0.033190854 -0.093646936 0.014612969 0.15537943 -0.13262562 -0.33768526 0.05590301 -0.014740098 0.09080953 0.10114222 -0.064675756 -0.34220213 0.1004925 -0.044670273 0.03610418 -0.1486939 -0.1713695 0.23496819 -0.09408814 -0.1981802 0.04591295 0.15517446 -0.08646559 -0.23150331 0.28298253 -0.21892716 0.002151762 -0.023803823 -0.09006144 0.1096013 0.11367888 0.056952287 0.20045438 0.04123808 -0.10840333 0.13703789 -0.10504073 0.22136524 -0.022798778 0.032859623 0.34021318 -0.025577888 0.008093137 -0.07069815 -0.013397502 -0.017559985 0.22858895 0.09066233 -0.16875298 -0.10351583 -0.26077878 -0.10004096 -0.09540134 0.045492873 -0.04740676 0.117623776 -0.03036654 0.0010746403 -0.21804546 0.15414214 -0.20246254 -0.19473861 0.008785969 -0.008858349 0.096213184 0.030288659 0.17214477 0.24473351 0.16818897 0.093746535 -0.05643432 -0.22618052 -0.095608026 -0.3732912 0.09615389 -0.07617886 -0.20125283 -0.041870542 -0.20296143 0.15963082 -0.22093 0.08762091 -0.1364835 -0.19369729 -0.088484325 -0.023731701 0.21653387 -0.13925454 -0.18242313
22 -0.13831607 -0.1728553 -0.17631336 -0.22672904 0.28043684 -0.070937425 -0.2477866 -0.24435432 -0.041189782 -0.020542797 0.12678783 0.121935934 0.10179428 0.020783855 -0.095214084 -0.11628479 -0.21139222 0.023072876 0.23533905 -0.14525443 -0.11248013 -0.1752664 0.13541496 0.054814853 -0.017186357 0.06778719 0.02227465 -0.073125504 0.016655507 0.010758682 -0.11143664 0.19061194 -0.16307786 0.0073614456 -0.04077513 0.061767276 0.011717733 0.12949388 0.039351586 -0.13867843 -0.13533276 -0.042871144 0.16328466 -0.06004656 -0.31717893 0.10076649 -0.04409954 0.081249416 0.13328797 -0.06909279 -0.31960142 0.084933385 -0.04584838 -0.025472835 -0.15449867 -0.14991911 0.2558515 -0.13721648 -0.28296658 0.05668363 0.14023985 -0.086756945 -0.17959072 0.3176255 -0.20042202 -0.039956782 -0.10975 -0.06532283 0.12510167 0.099887766 0.062374298 0.11280118 0.02511145 -0.14505574 0.092892826 -0.06920957 0.29232055 -0.03495622 0.048831534 0.393605 -0.03642732 -0.07921719 -0.115268916 -0.0647634 -0.07373459 0.22765625 0.07275711 -0.15552594 -0.10946523 -0.28468034 -0.06953083 -0.12775454 -0.025790498 -0.08572922 0.20951405 -0.053724233 -0.08429751 -0.22808158 0.1818333 -0.21025354 -0.21622007 0.006099179 0.042640436 0.2033696 0.013110554 0.15504466 0.2614581 0.2424713 0.13589689 -0.05084623 -0.19970334 -0.11098887 -0.3993023 0.20704095 -0.058350287 -0.29523525 -0.08785581 -0.2326432 0.1914305 -0.19941278 0.069165125 -0.11352866 -0.17612718 -0.09137551 0.058744248 0.34351882 -0.0972781 -0.17583004
7 -0.046022903 -0.0020683468 -0.2819789 -0.1301833 0.304078 -0.010094982 -0.053947568 0.008032989 0.2602177 -0.07140549 0.10500173 0.07777867 0.03715063 0.13323332 -0.02265004 -0.0292488 0.022553569 0.012201864 0.119919136 -0.02329517 -0.18684925 -0.13260914 -0.047019444 -0.095594 -0.024540419 0.065057 -0.2113509 0.051125243 0.0061056376 0.17315947 0.14913626 0.21529555 0.11431 -0.061367992 -0.025981583 0.08449261 -0.11467449 0.13318904 -0.24624547 -0.05079198 0.012493205 0.07708756 0.013263857 -0.33438447 -0.2776419 0.049341034 0.11058839 0.11671758 0.22748865 -0.0627835 -0.46527833 0.22568932 0.12848726 -0.017557718 -0.20120494 -0.19858405 0.3217184 -0.13296856 -0.11547591 -0.045767833 0.17932588 -0.111058675 -0.20236008 0.26136452 -0.19161929 0.17248735 0.114637315 0.014134671 -0.19206943 0.00020638685 0.09081171 0.3014439 -0.14220633 0.09046001 0.27949384 0.11730399 -0.032008935 -0.1129454 0.035749067 0.23640525 0.020799464 0.063277006 0.10741244 0.18607172 0.030443398 0.081182346 0.16236377 -0.111239955 -0.0717795 -0.29456234 -0.06781575 0.08770131 0.22702985 -0.1268225 -0.0659034 -0.14150275 0.048548695 -0.3365684 0.18967699 -0.017758882 -0.24107362 0.12725322 -0.21948153 0.14302093 0.030581815 0.18191625 0.22936368 0.09812232 0.0863338 -0.013628804 -0.17468463 0.02815398 -0.18461068 -0.003922123 -0.047809675 -0.042566948 0.08022475 -0.25113466 0.20102037 -0.33698577 0.24760117 -0.14078957 -0.23768103 -0.21465242 -0.14946176 -0.06969901 -0.24060483 -0.2281481
65 -0.06437593 -0.044071972 -0.17111306 -0.37633914 -0.095946826 0.23091768 0.26896 -0.052502785 -0.20620993 -0.14134306 0.084039554 0.36964116 0.35472617 0.19387965 -0.41584706 -0.22770038 -0.14176786 -0.08220146 0.40448436 0.32615837 -0.23390724 -0.22118685 -0.2374437 0.5403862 0.24292803 -0.0073437216 -0.36138818 0.06097798 -0.10071188 0.006695495 0.12916622 -0.06026689 0.03398184 -0.16207176 -0.31316978 -0.15029804 -0.0024209344 0.18059023 0.26831615 -0.32648188 -0.058794834 -0.04719025 0.23664916 -0.09693129 -0.3123254 -0.034246825 -0.18069106 -0.024211112 -0.016780047 -0.11964848 -0.15505458 -0.026695903 -0.09574029 0.03613382 0.049164567 0.0084045455 -0.02508009 -0.34347254 -0.2368824 -0.07795532 -0.29948124 -0.20170921 0.0074995337 -0.003984933 -0.14398302 -0.059795894 -0.12823105 0.09797879 -0.02427688 -0.15848641 -0.2129954 -0.030438058 -0.012682353 -0.24317458 -0.091822095 -0.09394741 0.28041136 -0.22918724 0.19362688 0.28140193 -0.10624009 -0.004208501 -0.042864166 0.14114082 0.0676275 0.06804046 0.30006057 -0.09422179 0.17165133 -0.21487713 -0.10336103 -0.15856281 0.06940505 0.25607026 -0.09131435 0.107918665 0.07339279 0.035951022 -0.019824976 -0.08315684 -0.19100203 0.21115698 -0.038350705 -0.07031438 0.02183587 0.42121282 -0.19982348 0.03469707 -0.13720481 0.32561222 -0.013912741 -0.17522375 -0.16275556 -0.26319754 -0.37264228 -0.07937104 -0.14362447 0.22244598 0.053310554 0.31416354 0.05623922 0.041654505 -0.23977119 -0.17889154 -0.04645191 0.22002698 -0.041969426 0.02835091
50 -0.026789533 -0.004379174 -0.1767152 0.014200097 0.25864267 -0.03228402 0.046577193 -0.056153573 0.13093273 -0.07164832 0.17521156 0.12186032 -0.036631707 0.13091716 -0.036705635 -0.09786958 -0.0647447 -0.012577459 0.008993827 -0.07947525 -0.10932626 -0.10178793 -0.023655536 -0.1117404 -0.028754381 0.024872616 -0.26730436 0.04874993 -0.011149511 0.15057123 0.106652826 0.15869689 0.011980897 0.008468681 0.068076506 0.19231027 -0.0439316 0.24539584 -0.1761794 -0.06448237 0.06269296 0.055313896 -0.02387253 -0.25982323 -0.21588695 0.0428527 0.17614935 0.04258642 0.2196794 -0.09833001 -0.48702514 0.15185183 0.13118783 -0.008616088 -0.11827381 -0.17360483 0.28571504 -0.06929548 -0.08566438 -0.01227136 0.17306982 -0.027407518 -0.1652141 0.1626667 -0.20249547 0.07315859 0.018817645 -0.17686482 -0.07333898 -0.022141756 0.040104404 0.2261656 -0.081571184 0.03288671 0.25273913 0.118709855 -0.04958316 -0.15755114 0.043228775 0.20419468 -0.029755203 0.115435734 0.07891709 0.21468534 0.005399794 0.0835084 0.17007169 -0.14148584 -0.05161291 -0.2653198 -0.078572504 0.028294962 0.234764 -0.066865906 -0.11314828 0.011725767 -0.017294327 -0.2480419 0.21544547 0.010288528 -0.26200652 0.1742685 -0.17706949 0.17134613 -0.060682192 0.18783194 0.27577496 0.065195106 0.10265126 0.003988274 -0.15090497 -0.060120743 -0.15621027 0.04120048 -0.0805818 -0.0034070835 -0.0464833 -0.09891623 0.24587996 -0.24499732 0.16964506 -0.08755011 -0.18479583 -0.20687686 -0.14708765 -0.082029715 -0.12856972 -0.08894831
6 -0.08804892 0.005029845 -0.2217488 -0.004053661 0.21922359 0.012001207 -0.00086756074 -0.007865942 0.2278233 0.03189347 0.14458913 0.11545531 -0.0030429529 0.12139452 -0.043341 -0.045961753 0.103058256 -0.023129942 0.023071185 0.019295707 -0.18421412 -0.14682575 -0.03159662 -0.15666118 0.10769897 0.034529373 -0.20989132 0.06303854 0.032662176 0.26316005 0.1092829 0.14859687 0.11977116 -0.0275018 0.051054522 0.084607445 -0.060530003 0.14022432 -0.34045574 -0.020415552 0.014252864 0.10784469 -0.00026405032 -0.2988038 -0.22403294 0.0024255193 0.28332582 0.07257999 0.19442706 -0.069651306 -0.37154487 0.19109717 0.14041673 -0.102677464 -0.1471598 -0.15449324 0.29690194 -0.08234457 -0.046096947 -0.15558714 0.16130908 -0.1162664 -0.21397762 0.17945991 -0.13302144 0.13705172 0.07465956 -0.073284246 -0.21971361 -0.027763406 -0.00430062 0.24939258 -0.11177859 0.12513061 0.35542905 0.12902676 -0.15416707 -0.085120976 0.069342785 0.20233458 0.025668373 0.0025461107 0.19273572 0.28764933 0.07346382 0.15620345 0.2234417 -0.15042274 -0.12980305 -0.29058436 -0.20907871 0.100489214 0.22001816 -0.043297574 -0.14544907 -0.14977024 -0.07767775 -0.3150713 0.22618668 -0.011746855 -0.2959833 0.16476855 -0.18167414 0.1599153 -0.11660759 0.22695543 0.3109081 0.1837314 0.058904935 0.047684733 -0.16328536 -0.055022225 -0.17291799 0.09441682 -0.027249571 -0.013309562 -0.037273888 -0.25268957 0.22756936 -0.38471505 0.2408605 -0.17767508 -0.23895955 -0.2495936 -0.13106099 -0.07272262 -0.28750739 -0.15338348
55 -0.02602817 -0.011186529 -0.26038456 -0.05206372 0.3180431 -0.024160843 0.0052355714 -0.06771204 0.17060189 -0.074453965 0.079959065 0.08696091 -0.022783501 0.14946769 -0.05097269 -0.10355087 0.019703873 -0.031373706 0.043587863 -0.0142803285 -0.15712562 -0.09967518 -0.054958887 -0.12789646 0.039533805 0.01731726 -0.25219753 0.048715588 -0.02780148 0.20182668 0.13389418 0.1397817 0.10314641 -0.10548782 0.017046057 0.16055857 -0.05910287 0.19283664 -0.25528488 -0.14730892 0.015132715 0.058401898 -0.010736576 -0.33517185 -0.23329799 0.03338909 0.1907771 0.11881831 0.200376 -0.07209103 -0.42053372 0.17914492 0.09031031 -0.007626289 -0.11475575 -0.20584325 0.34242186 -0.13457993 -0.12023696 -0.0906298 0.11468057 -0.05890217 -0.11758499 0.16590555 -0.17464021 0.14452682 -0.0064182733 -0.04374917 -0.2001476 -0.051731158 -0.0023922513 0.2464922 -0.14690553 0.037967008 0.28428003 0.078250654 -0.0700545 -0.15002242 0.062219176 0.27229732 -0.009704101 0.028589524 0.15704189 0.2370355 0.08996053 0.07615928 0.19178338 -0.14478323 -0.096893206 -0.30011722 -0.18102963 0.029329112 0.26917675 -0.08696451 -0.14130765 -0.079135336 -0.03794528 -0.21159491 0.16655686 0.008839527 -0.247703 0.15972786 -0.15076913 0.10081549 -0.059670497 0.29958197 0.18187696 0.099745974 0.087077625 0.049949337 -0.14191732 -0.051323712 -0.19844142 0.0058168545 -0.07143548 -0.08039699 0.035870872 -0.1944175 0.27168506 -0.22540727 0.17980589 -0.0994749 -0.25285113 -0.23416364 -0.1443996 -0.0020207558 -0.20902973 -0.13515754
31 0.0060585635 0.010995343 -0.046846744 -0.28144944 -0.20682088 0.18066747 0.31376368 -0.08698958 -0.19904275 -0.058651716 0.2482946 0.4541683 0.408954 0.22458684 -0.45781717 -0.28955463 -0.19516355 -0.10932559 0.38416737 0.34336767 -0.26601216 -0.28034022 -0.29098922 0.5073294 0.29489523 0.007232821 -0.27198303 0.10228203 -0.0060379743 0.038649306 0.073376715 -0.12008974 0.021252919 -0.15620115 -0.2994999 -0.0811689 -0.0072016423 0.23095067 0.35001612 -0.38572055 -0.025879197 -0.078693576 0.25874203 -0.05526739 -0.30181426 -0.06713476 -0.21566544 -0.03169727 -0.055193063 -0.12244499 -0.1873366 -0.0546296 -0.08010614 0.002426601 0.085822985 0.052785806 -0.018067 -0.31122926 -0.2572699 -0.085039504 -0.24944364 -0.23116785 -0.0025409185 -0.18018246 -0.15151466 -0.056490775 -0.19323058 0.033297982 -0.030632352 -0.113603 -0.19901125 -0.14988105 0.117320396 -0.30045754 -0.08839372 -0.12920202 0.2949591 -0.22701636 0.2658479 0.26591188 -0.14759733 -0.057726294 -0.062291946 0.18718937 0.031370293 0.053309225 0.29084575 -0.16956322 0.21692644 -0.2579706 -0.19203795 -0.13610889 0.037381057 0.31014442 -0.18353012 0.123264015 0.04693219 0.036708776 -0.0014181384 -0.013939693 -0.13313074 0.26263884 0.011491153 -0.099553764 -0.038357805 0.4016032 -0.16620305 0.09786885 -0.09889667 0.34503168 -0.045794014 -0.28145722 -0.073101416 -0.28865406 -0.31468126 -0.034553256 -0.2121903 0.3173059 -0.02608935 0.2721524 0.056484453 0.062386833 -0.24120131 -0.1235113 -0.08992312 0.21506922 -0.0380315 0.13751687
10 -0.17466715 -0.15762584 -0.07155989 -0.29161766 -0.12856466 0.19609548 0.24422209 -0.028925795 -0.12903056 -0.07777683 0.07874261 0.4260125 0.3308806 0.15489145 -0.3764594 -0.076321825 -0.12766527 -0.042368133 0.4157403 0.28108096 -0.20622575 -0.23459406 -0.2948375 0.5719029 0.27870947 -0.009283677 -0.20077069 0.07671023 -0.022234665 0.0053245435 0.06100735 -0.09491257 0.02704607 -0.13564146 -0.26375932 -0.14912528 0.06381244 0.1870482 0.30186695 -0.34080675 -0.08880331 -0.07398906 0.20786838 -0.051843487 -0.24663444 -0.05584919 -0.18625866 -0.03504527 0.0057653403 -0.1123153 -0.19083521 -0.0459321 0.022449225 -0.06477474 0.0994269 -0.0018319098 -0.057130113 -0.42660487 -0.24346128 -0.069355726 -0.18196546 -0.33134657 -0.0058055343 -0.10076175 -0.09501529 0.0056140115 -0.18849415 0.118485026 -0.08556256 -0.0692001 -0.12178486 -0.14379594 0.015586444 -0.22379853 -0.06620498 -0.010321954 0.28598437 -0.21785963 0.1255485 0.24764886 -0.11358142 -0.15834568 -0.10411356 0.08552089 -0.003364856 0.04550653 0.27652523 -0.14024076 0.17312351 -0.21577132 -0.10505206 -0.13094455 0.031363156 0.25229898 -0.15096295 0.11916612 0.0044808867 -0.04981458 0.04017528 0.029931756 -0.2907338 0.2514628 -0.048748337 0.05465438 0.017757218 0.30400065 -0.08573721 0.107521206 -0.13325158 0.3611107 0.049520843 -0.19787376 -0.10057077 -0.26023775 -0.26766777 -0.06500498 -0.19793886 0.23747985 -0.06808095 0.27884617 0.08168237 0.06438242 -0.19098271 -0.12779354 -0.076535605 0.2144859 -0.02145555 0.085103035
13 -0.100358844 -0.13833062 -0.19088668 -0.16520669 0.2450507 -0.0014697287 -0.22051391 -0.20891945 -0.01489406 -0.05399746 0.08524799 0.08035441 0.029949965 -0.013984299 -0.07462396 -0.052907567 -0.16063945 -0.0040865038 0.21774857 -0.16429433 -0.09570135 -0.105651796 0.044322446 0.05714917 0.015850756 0.028839001 0.020149143 -0.08737482 -0.10102329 -0.025724806 -0.096356295 0.13016808 -0.17039883 -0.0782792 0.0077115204 0.13364407 0.017831083 0.20172805 -0.03304326 -0.1508466 -0.1617302 -0.013892689 0.13150811 -0.0763211 -0.26287627 0.09767178 0.046926502 0.08646776 0.20354465 -0.074971385 -0.39416495 0.10327842 0.0022158371 0.0042002127 -0.08967236 -0.26337928 0.21906742 -0.14829755 -0.22769499 0.018180056 0.1530647 -0.046678983 -0.14813322 0.2592394 -0.24768667 -0.027621549 -0.085578464 -0.12699091 0.08164727 0.0303799 0.08245586 0.15137012 -0.0072941394 -0.031829607 0.21523568 -0.050259337 0.17920904 -0.08450703 0.023912027 0.38224268 -0.042038184 -0.06424035 -0.07781361 -0.038235355 -0.05511149 0.20316228 0.08327924 -0.19812475 -0.110944696 -0.31108484 -0.083249114 -0.13742913 0.03135566 -0.08521073 0.10668364 -0.04039088 -0.052406263 -0.28878263 0.16763459 -0.13268414 -0.23008284 -0.0082112765 0.01283122 0.19935724 -0.025866061 0.18951829 0.25347084 0.18291357 0.09124533 -0.064084075 -0.19060965 -0.13738535 -0.33904845 0.16107596 -0.088831246 -0.18018976 -0.07777279 -0.1569775 0.2330443 -0.14742266 0.101830386 -0.08986936 -0.20036532 -0.16861802 -0.017060263 0.24176957 -0.06179993 -0.14120315
62 -0.120479405 -0.15850487 -0.09340452 -0.080354795 0.25020877 -0.0137689365 -0.13124071 -0.20063287 -0.043585002 -0.09897142 0.17367141 0.14365245 0.014479761 0.04245255 -0.1192053 -0.10331874 -0.2371654 -0.030007837 0.14417286 -0.19973479 -0.0900018 -0.1261232 0.04566508 0.07846954 -0.029565806 0.06335733 -0.016690843 -0.06167814 -0.03671003 -0.0068015214 -0.10152708 0.17497227 -0.124473706 0.030501742 0.047851317 0.10899852 0.021710902 0.25482288 0.092435405 -0.08904622 -0.14405079 -0.054904394 0.09831824 -0.05642688 -0.3173475 0.06553914 -0.021721683 0.07722518 0.1554823 -0.10432707 -0.44896922 0.066948764 0.021089746 0.0250259 -0.011242101 -0.21063422 0.15783508 -0.19388632 -0.238786 0.039371606 0.21228951 -0.08458372 -0.19999862 0.22603054 -0.2644626 0.019053815 -0.10710318 -0.16362464 0.12030271 0.07709403 0.02575406 0.100153 0.0473131 -0.11139361 0.1461376 -0.030185532 0.20597659 -0.13616697 -0.026862498 0.30206254 -0.025698174 -0.063653916 -0.10871804 -0.08581789 -0.065420255 0.17176114 0.085719384 -0.16971582 -0.056734562 -0.25463587 -0.01259482 -0.17262879 0.09140075 -0.046462804 0.1166069 0.035583265 -0.03312903 -0.22171491 0.15205358 -0.05988847 -0.2502578 -0.016147437 -0.02759661 0.2100423 0.006795039 0.20138954 0.32054028 0.16613539 0.06456983 -0.023252442 -0.21844645 -0.15205216 -0.2708592 0.0992163 -0.050715577 -0.19656931 -0.09105332 -0.059724834 0.16652429 -0.14643057 0.031402253 -0.0749814 -0.13076015 -0.09588953 -0.047752574 0.1929134 -0.05050622 -0.1107169
58 -0.12059652 -0.08942068 -0.06874499 -0.38630453 -0.056603577 0.21256843 0.22541888 -0.06413399 -0.18422988 -0.19062541 0.11830192 0.4407467 0.36778262 0.23667467 -0.4024828 -0.22702852 -0.22551183 -0.16837521 0.41695523 0.24869065 -0.28647852 -0.27951247 -0.295537 0.44409373 0.24439394 -0.013792385 -0.30376446 0.057058096 -0.02809578 -0.11565736 0.05334614 -0.064637326 -0.0031970376 -0.20402654 -0.2506879 -0.073269606 -0.01585796 0.24766655 0.38914764 -0.31360513 -0.0709957 -0.09424736 0.25553864 -0.07663764 -0.3418769 -0.0673198 -0.17638871 0.050645784 -0.06307493 -0.114979684 -0.15548195 -0.05951551 -0.13841587 0.1198949 0.036514156 -0.054549076 -0.058478124 -0.2728925 -0.241063 -0.11711946 -0.2125202 -0.17471524 0.0022112792 -0.06353174 -0.20051865 0.024214746 -0.15171148 0.073843 0.08407437 -0.0583947 -0.18981172 -0.07681806 0.09144091 -0.28824311 -0.087498814 -0.08439197 0.40278265 -0.2797006 0.2156939 0.30486828 -0.07560714 -0.062202103 -0.12704599 0.1313452 -0.016219104 0.03685216 0.3267581 -0.13879015 0.22089209 -0.3242131 -0.2225593 -0.14346409 0.026260503 0.2594635 -0.10288656 0.120887585 0.08983241 -0.044118658 0.0029147947 -0.06635214 -0.17323318 0.14376932 0.07415489 -0.08977837 -0.016019266 0.37830856 -0.18589358 -0.005550006 -0.14351079 0.2758129 -0.13932061 -0.20163204 -0.15089858 -0.23199713 -0.31309193 -0.1232515 -0.19423006 0.30378455 0.014773887 0.22326496 -0.0068770805 0.062210046 -0.25806603 -0.14542684 -0.15348738 0.24466781 0.012703941 0.042073146
20 -0.22832978 -0.25232545 -0.22053465 -0.0669153 0.3817548 -0.13190149 -0.11444525 -0.15912099 -0.08249791 -0.2199202 0.0071132104 0.19858323 0.09540217 0.070124395 -0.14657363 -0.2327647 -0.28112057 -0.03718349 0.1273388 -0.042076893 -0.03803034 -0.11829582 0.25579208 0.0025517119 -0.054196592 0.06141225 -0.22567753 0.030267509 -0.09725284 0.12067926 -0.07647554 0.30423898 -0.19356354 0.07880839 0.03360568 0.1594966 0.020507319 0.16799928 -0.054588847 -0.11969168 -0.08564098 -0.110970244 0.08454594 -0.10714139 -0.25488147 0.15660028 0.046165638 0.04856003 0.055090137 -0.08371063 -0.32453325 0.052373346 -0.06378334 0.0014289623 -0.18742326 -0.24540295 0.26728284 -0.0023044676 -0.3048055 -0.01119505 0.075802036 0.04031836 -0.13317743 0.27516276 -0.11006447 -0.0016336471 -0.11602779 -0.11075904 0.07491589 0.088786274 0.01072772 0.107201874 0.010146896 -0.14311518 0.04250852 0.06616918 0.27087536 -0.03540024 0.15131737 0.40887147 0.00068457756 -0.04125707 -0.14000094 0.06545212 0.05418418 0.21905097 0.036470305 -0.077944234 -0.13786633 -0.23753743 -0.10728626 -0.13057324 0.041941006 -0.08977208 0.04344201 0.11533886 -0.23486952 -0.1879997 0.2826012 -0.014836499 -0.39787352 -0.13206038 0.046514474 0.07803641 -0.09658894 0.1530022 0.2553479 0.27015126 0.04189558 -0.10094867 -0.26780957 -0.16380854 -0.32101658 0.17280877 -0.14325237 -0.3972596 -0.078751445 -0.1996382 0.15869606 -0.10535553 -0.027712887 -0.13449045 -0.16427538 -0.26190856 0.05091301 0.23378778 -0.040146362 -0.15174
54 -0.21388485 -0.24305698 -0.122004755 0.06520465 0.30586398 -0.12575983 -0.054994296 -0.16238157 -0.058493584 -0.2154496 0.022127826 0.18445846 0.006562834 0.03871684 -0.11450225 -0.24190313 -0.27175292 -0.060012534 0.09893618 -0.107392594 -0.031492606 -0.07311064 0.26578587 0.024550047 -0.025177717 0.08931198 -0.15720926 0.015045228 -0.13533553 0.103660874 -0.07018546 0.2758672 -0.18425088 0.11428321 0.13756742 0.12780318 0.03492763 0.16951746 0.021026047 -0.082270704 -0.09045856 -0.101112604 0.12487291 -0.0069495155 -0.26688024 0.08056371 0.045402266 0.03690477 0.04840022 -0.09123625 -0.36233473 0.035801694 -0.047962293 0.019946938 -0.07419096 -0.22380476 0.22151795 0.0011802323 -0.28736082 -0.034989387 0.09286943 -0.02429986 -0.13170725 0.28304031 -0.21756144 -0.029526535 -0.123269215 -0.14311956 0.10237915 0.12099295 -0.03256838 0.12748702 -0.0038421054 -0.08967383 0.10234784 0.0021050724 0.16981743 -0.071723215 0.067239866 0.35799652 0.0005146199 -0.037730478 -0.12803918 -0.0012130735 0.10334457 0.17628425 0.030844545 -0.061375957 -0.11349802 -0.13563484 -0.04929261 -0.21602413 0.04458063 -0.02182452 0.08325164 0.1365536 -0.21430622 -0.13083382 0.23814559 0.01607139 -0.3569672 -0.141031 0.034177728 0.05317943 -0.05398799 0.20080493 0.3457078 0.29055944 -0.09003781 -0.01442926 -0.24685957 -0.23155172 -0.33029723 0.12282781 -0.21387564 -0.370808 -0.084897265 -0.10617572 0.117227405 -0.03309231 -0.043556828 -0.1278175 -0.13344468 -0.20868637 0.03904863 0.21803527 -0.049359303 -0.08592196
8 -0.2131524 -0.22218977 -0.22573152 -0.045263555 0.34504026 -0.08855827 -0.17980261 -0.17016521 -0.11170113 -0.18942346 0.006126034 0.117546536 0.06888542 -0.018155364 -0.17818645 -0.26662925 -0.2496253 -0.00257776 0.14161594 -0.08545128 -0.0125065185 -0.10772008 0.32868877 0.03424935 -0.055979658 0.09887581 -0.17079854 -0.016804522 -0.14280683 0.11592083 -0.12374306 0.27053246 -0.25535193 0.08586997 0.04568013 0.116976924 0.07367732 0.14251046 -0.08621725 -0.0838074 -0.1690595 -0.09764147 0.048714187 -9.050564e-05 -0.19589452 0.19828373 0.023473496 0.03991784 0.13771527 -0.06303166 -0.37216577 -0.020032875 -0.027362024 -0.03855431 -0.112590574 -0.25522798 0.22943464 -0.01144454 -0.30062202 0.014443936 0.085972704 0.046435032 -0.15152796 0.2406652 -0.09331483 -0.04725724 -0.10385636 -0.16391565 0.083506644 0.097259685 0.00855782 0.100797355 0.0020063296 -0.07938734 0.13280298 0.07355756 0.16207743 0.00078425964 0.12111939 0.37096456 0.02867171 -0.08250443 -0.1468627 -0.035196993 0.06602864 0.28386164 0.028849805 -0.15218723 -0.17852172 -0.16674432 -0.022850705 -0.20562586 0.005244542 -0.12789351 0.040422123 0.110155135 -0.22931617 -0.17883666 0.24941435 -0.030080922 -0.395682 -0.13470131 0.026676333 0.17781405 -0.06489992 0.11131871 0.32594368 0.31804428 -0.026419949 -0.08119438 -0.22913986 -0.1454531 -0.33259958 0.1984779 -0.2120982 -0.34981704 -0.1209735 -0.21327877 0.13654205 -0.12171198 -0.017807517 -0.14068411 -0.14790237 -0.25475872 0.1097384 0.2549778 0.01082151 -0.15860729
43 -0.06191151 -0.08467887 -0.20945969 -0.09586096 0.34503385 -0.056666937 -0.07231416 -0.07828425 -0.050425112 -0.20014329 0.03153776 0.11731153 0.08025412 0.023185998 -0.12971228 -0.17092443 -0.23939276 0.0033311513 0.107636526 -0.03788219 -0.01954479 -0.10548262 0.20596085 0.0981162 0.0056496398 0.022617733 -0.2580086 -0.01771315 -0.111256555 0.16904578 -0.015397311 0.24588822 -0.21089534 0.028358836 0.014587533 0.10879329 -0.015619509 0.15038936 -0.035699446 -0.16437939 -0.044926427 -0.06970558 0.07816877 -0.12471777 -0.250727 0.13861316 0.000871868 -0.020070415 0.12718475 -0.058182903 -0.33277833 0.035984866 -0.019910526 0.037001893 -0.13120452 -0.2020866 0.31861976 -0.08021018 -0.2398791 0.038315818 0.044298213 0.007890138 -0.101060234 0.29179007 -0.120235786 0.0006442268 -0.056224976 -0.11807955 0.07786775 0.035660133 0.0964123 0.13076383 -0.03908103 -0.13387267 0.07616048 -0.006955464 0.22009024 -0.08030321 0.059736088 0.3488847 -0.031612385 0.030689886 -0.11888087 0.031786356 0.06282018 0.1473179 0.08903248 -0.057358827 -0.16616663 -0.19345604 -0.047605813 -0.14142358 0.0823852 -0.061996955 -0.027640939 0.16967587 -0.21614785 -0.16801628 0.25042287 -0.018074693 -0.29406783 0.04417105 0.0060713035 0.08951628 -0.053571768 0.13534135 0.25497115 0.2533676 0.113721885 -0.06439078 -0.19240871 -0.12242176 -0.34592235 0.1106933 -0.19995329 -0.26393878 -0.04548593 -0.22921672 0.21157427 -0.0480342 0.08806525 -0.12444747 -0.22188024 -0.263542 0.02911267 0.20993322 0.012856037 -0.16231593
44 0.48256752 0.2918092 -0.68703896 -0.54492843 -0.14956483 -0.15891284 -0.20274805 -0.28604314 0.23464787 -0.15611273 -0.13976756 -0.35220626 0.35147232 0.08948196 -0.33015227 -0.30089077 0.0017185756 -0.38200614 -0.028182311 0.5330336 0.19993709 0.03763725 0.18179342 0.22514711 -0.023869438 0.027334154 0.016142849 0.24004328 0.0153031945 0.17521803 0.031034365 -0.014368406 -0.11204074 -0.47504377 -0.3323978 0.21520248 -0.64870924 0.2282742 -0.13389504 -0.40861118 -0.042552054 -0.04691697 -0.6602514 -0.26282865 0.16061184 0.3501171 -0.21497259 0.48937756 0.040285684 0.32264462 -0.33880347 0.15020558 -0.38070294 -0.2847103 0.13397846 -0.17221582 0.49176705 -0.044305157 0.060730316 0.015477685 -0.4625408 0.3927309 0.053297248 -0.25306228 0.04559419 -0.010195349 -0.35731658 -0.008512247 -0.21554093 0.43114495 0.19117336 -0.06594448 0.15034871 -0.33580709 0.15744452 -0.35462636 -0.55283296 -0.124931745 0.69831985 0.07401867 -0.20542552 0.10938208 0.2685493 0.063877545 0.25483796 -0.27143154 0.016502714 -0.3981521 -0.48745242 -0.11882297 -0.22114952 -0.2301138 -0.08713497 0.06601939 -0.31032252 0.2591359 0.2896496 0.5192875 0.08280918 0.033492006 0.17236835 0.3352313 -0.076899685 0.1876857 0.1978528 0.5113541 0.26418713 0.16495684 -0.016901549 0.41792718 0.070640266 -0.42336056 -0.282042 0.3048918 -0.32658473 -0.09334847 0.18183409 -0.38009083 0.20606147 -0.18742009 0.21590261 -0.04797462 -0.55728334 -0.03079681 0.38646424 0.11109487 -0.28304327 -0.56006813
60 -0.17020544 -0.12344989 -0.20561175 0.034281597 0.3644109 -0.124879174 -0.054844547 -0.03957769 -0.08703058 -0.29701313 0.030360742 0.10341857 0.061188936 -0.0033095465 -0.17961513 -0.21707392 -0.27806053 -0.031321637 0.06513646 -0.060656246 -0.012763496 -0.124794 0.30810034 0.03314674 -0.02065101 0.09805058 -0.3206062 0.027829623 -0.12149344 0.22907153 -0.047084067 0.3007753 -0.2552106 0.1015685 0.08873686 0.12513578 0.051495716 0.19735351 -0.102833465 -0.11933243 -0.09876831 -0.119016625 -0.014333517 -0.05076631 -0.19881462 0.13373964 -0.0038226624 0.022043431 0.1218644 -0.0589979 -0.40412673 -0.06955861 0.005181221 -0.051738698 -0.05496584 -0.25697747 0.30402082 -0.0270729 -0.23511069 -0.03533505 0.089135215 0.054991238 -0.12280011 0.23429511 -0.08696272 0.04274272 -0.04867886 -0.1314649 0.045019336 0.1278006 0.028787516 0.11688666 -0.036024675 -0.08397998 0.09242098 0.14179283 0.12652569 -0.068382904 0.12059844 0.35549578 0.04622391 -0.037436537 -0.16075167 0.02408194 0.15017755 0.20302199 0.07597902 -0.08357684 -0.18201515 -0.17359959 -0.033877917 -0.21174236 0.054728076 -0.16160937 -0.058288 0.20454717 -0.28563085 -0.19185814 0.26695815 0.10548822 -0.42962363 -0.12411769 0.05304882 0.16524449 -0.08294288 0.06909587 0.28513476 0.28589907 -0.0050051035 -0.0715828 -0.24350965 -0.13407937 -0.28838477 0.13273424 -0.24273914 -0.27830642 -0.12466422 -0.19286433 0.1404004 -0.08367065 -0.016834134 -0.105609946 -0.16812517 -0.32226697 0.053611588 0.17213273 0.06824754 -0.16383812
26 0.4167873 0.24563314 -0.635125 -0.47089577 -0.17757432 -0.28756756 -0.13713811 -0.37000138 0.2473657 -0.20502771 -0.17125604 -0.31271031 0.3733816 0.09608397 -0.33354077 -0.2966602 -0.004771368 -0.38925442 -0.06927651 0.5346984 0.27255192 0.00014373177 0.22632287 0.19480413 -0.06491069 0.050021134 -0.017583918 0.13858584 -0.07662282 0.14601147 0.090076834 0.054058135 -0.03850002 -0.54018134 -0.31913844 0.21522617 -0.59145474 0.20059597 -0.16766232 -0.4245467 0.010521564 -0.04101277 -0.66274095 -0.27795714 0.12125441 0.3223214 -0.18354271 0.5903168 0.012681759 0.34085402 -0.3638645 0.18799867 -0.37031424 -0.35603708 0.17096442 -0.16073318 0.54322463 -0.0025965685 0.016274866 -0.07990488 -0.38842326 0.3093681 0.09459346 -0.17617047 -0.13006891 -0.048183642 -0.31017533 -0.0059690345 -0.20304959 0.48022717 0.057870995 -0.03994562 0.095215105 -0.27669975 0.20052885 -0.38337827 -0.6270827 -0.13271886 0.6816078 -0.0022443254 -0.18308778 0.13523401 0.35178995 0.08018697 0.29066518 -0.24766307 0.005339267 -0.3077988 -0.43915403 -0.10576677 -0.22258185 -0.2829137 -0.07308223 0.09975967 -0.15205228 0.15314238 0.3221611 0.49184507 0.07397391 0.05312755 0.23602629 0.29058233 -0.015856832 0.22800499 0.21142693 0.49499297 0.26776376 0.10339362 0.059036538 0.5469628 -0.0635897 -0.43006516 -0.237668 0.3553505 -0.34806722 -0.17057155 0.1796689 -0.3588231 0.30358812 -0.29008552 0.21996623 -0.0041727168 -0.5661861 -0.10556728 0.39602697 0.16940214 -0.4183282 -0.5524072
25 0.4556247 0.26337522 -0.77633196 -0.5351663 -0.18807998 -0.20560236 -0.17174207 -0.30152112 0.32203937 -0.15643053 -0.14272203 -0.309948 0.35519764 0.1951405 -0.31021228 -0.33556494 0.00883315 -0.3488787 -0.02976262 0.53074664 0.24005036 -0.031844195 0.16489679 0.22281803 -0.020363884 0.013482363 -0.04747272 0.15483627 -0.115790814 0.17592238 0.087842114 0.08083899 0.05208566 -0.51319116 -0.32335088 0.19293183 -0.64260954 0.20696095 -0.24232748 -0.3178385 0.017746463 -0.007960244 -0.7415588 -0.3428416 0.19676532 0.3641438 -0.124578506 0.57269466 0.073573686 0.34404683 -0.4071821 0.1950505 -0.27772713 -0.3003967 0.15208441 -0.17045847 0.4509095 -0.10976895 0.15513845 -0.09031696 -0.37174308 0.3138716 0.030980965 -0.23000535 0.014532009 -0.05265966 -0.30673105 -0.028966952 -0.23565042 0.4192464 0.011566583 -0.091864504 0.105172455 -0.30242726 0.18071204 -0.38630202 -0.64816904 -0.15902023 0.61362404 -0.08943084 -0.16800988 0.1980967 0.4044484 0.09667639 0.26328933 -0.27695715 0.042492438 -0.40269467 -0.44543353 -0.0624193 -0.18384719 -0.29524273 -0.029232513 0.12984577 -0.23328762 0.18557823 0.34019104 0.4190576 0.09275087 -0.03659746 0.17659497 0.33648166 -0.08322438 0.23436241 0.1521326 0.46402583 0.16206707 0.01761169 0.050414313 0.50623095 0.052239195 -0.36481914 -0.26023555 0.27589875 -0.36111224 -0.119998135 0.22389995 -0.33013973 0.25042874 -0.21211852 0.2973031 0.12357896 -0.5656098 -0.086785644 0.35395062 0.08867981 -0.42059904 -0.5276402
57 0.37971166 0.21163699 -0.689359 -0.5537782 -0.18443868 -0.14624572 -0.24020052 -0.27961335 0.28084904 -0.07639188 -0.18201847 -0.34470564 0.36854067 0.11198201 -0.2866233 -0.30749968 0.04188415 -0.34281436 -0.016859936 0.5462121 0.19551139 0.05510798 0.26748452 0.2220807 -0.0393302 0.016781421 0.03194329 0.2321206 -0.056733865 0.14139475 0.02500372 0.09473928 -0.021160062 -0.4428161 -0.3196953 0.16126363 -0.66819155 0.13702156 -0.1758547 -0.22291079 -0.04446254 -0.031034684 -0.59115595 -0.2853074 0.14659192 0.39295107 -0.15232812 0.47016695 -0.005841157 0.34986392 -0.27361366 0.25682282 -0.372255 -0.290275 0.057552878 -0.20074314 0.37086093 -0.012121063 0.03674489 0.011638862 -0.44995627 0.32627448 0.016227916 -0.1825248 0.08426976 -0.118355 -0.29579574 -0.03212102 -0.2173362 0.42543638 0.14832379 -0.04052048 0.1899034 -0.2949847 0.16506828 -0.43782964 -0.56836843 -0.0066449577 0.6314011 0.004147891 -0.13732396 0.15837768 0.32511503 0.012814183 0.2266257 -0.2030714 -0.06039439 -0.38312405 -0.47876057 -0.028737454 -0.15536563 -0.15189016 -0.09498453 0.16827299 -0.24310984 0.2023682 0.32730702 0.49640954 0.11787982 -0.06458196 0.14236018 0.2850392 -0.17249146 0.13344851 0.19845837 0.47804764 0.27419955 0.17836967 0.016289463 0.3938623 0.071793534 -0.35376927 -0.27176237 0.3018917 -0.29284766 -0.13540976 0.21879527 -0.38150048 0.13658811 -0.16498767 0.23287125 -0.036930926 -0.5108551 -0.027801998 0.37784702 0.08584376 -0.40789413 -0.5246051
9 -0.26255292 -0.21559785 -0.15997766 0.015819978 0.34397689 -0.058297835 -0.16307667 -0.10069242 -0.006816864 -0.22071598 -0.0391236 0.0974449 0.053167023 -0.0074398923 -0.12497389 -0.14078695 -0.18113723 -0.06801566 0.16025127 -0.048917513 -0.14327529 -0.09679279 0.26004973 0.013289815 -0.0095653655 0.13436188 -0.092981264 0.041093215 -0.122923724 0.09239039 -0.15579174 0.32842848 -0.18681182 0.08578443 0.15093373 0.11929723 0.011211423 0.12150843 -0.023433518 -0.04315744 -0.14252605 -0.18112873 0.07846835 -0.055488203 -0.26377463 0.07419801 0.0271004 0.04823514 0.11442111 -0.05127455 -0.37642583 0.075091854 -0.078700505 -0.009149394 -0.091969386 -0.29970688 0.21259333 -0.024491264 -0.37916943 -0.076404594 0.06769432 -0.057655137 -0.1399538 0.26420754 -0.11934844 -0.025348548 -0.095752515 -0.16131555 -0.037283808 0.12494314 -0.00079705333 0.17565073 0.0014778208 -0.042239062 0.19304438 0.058146875 0.13740613 0.03019938 0.089933835 0.43597278 0.07173842 -0.08802433 -0.10099883 -0.0356026 0.063122235 0.23801301 -0.031192452 -0.1462944 -0.16756736 -0.2520076 -0.09071932 -0.1580297 0.06058448 -0.0449083 0.02002951 0.14038448 -0.1942505 -0.13977657 0.28113988 0.019035995 -0.51162714 -0.16734053 -0.038542088 0.098812364 -0.050953567 0.22109246 0.34370998 0.33154276 -0.025643393 -0.109823905 -0.23060377 -0.19176994 -0.3501851 0.1712329 -0.1683975 -0.4028457 -0.14179493 -0.20475526 0.12135526 -0.04761522 -0.048061587 -0.17926225 -0.20376647 -0.28326946 0.009736928 0.1633229 -0.081595734 -0.16419646
14 -0.18408147 -0.15975024 -0.30337343 -0.043823294 0.32624334 -0.13176328 -0.09005323 -0.050189156 -0.03412022 -0.22152029 0.013337515 0.14397171 0.14174329 0.07141056 -0.20180407 -0.334141 -0.22652298 0.0077372757 0.07661818 0.04021857 -0.026036417 -0.08280464 0.34854162 -0.015770758 -0.087489046 0.1292863 -0.30503443 0.07729362 -0.13527666 0.21668184 0.0013177763 0.33314255 -0.14023785 0.13266109 0.038578466 0.08476796 -0.0018249869 0.12692091 -0.15052699 0.020521063 -0.05802843 -0.091449805 0.03209562 -0.07248019 -0.22018145 0.17586803 0.026175769 0.024356447 0.06618091 -0.069678865 -0.32538602 0.01370552 -0.016465845 -0.024691002 -0.16467214 -0.23640284 0.20470946 0.064881206 -0.24066606 -0.025044909 0.03301858 0.05961501 -0.13847815 0.21344736 -0.018752668 -0.004427774 -0.009480204 -0.10130859 0.02978326 0.08331281 -0.0177212 0.15024008 -0.022590702 -0.07743791 0.076278605 0.09117006 0.11747265 0.02210596 0.15602733 0.28846225 0.0695748 0.036302526 -0.080319665 0.06337783 0.13373101 0.21157736 0.02627265 -0.055041637 -0.12224184 -0.06717331 0.011038376 -0.13639523 0.034415852 -0.0820925 -0.023314027 0.12504114 -0.20090587 -0.12834783 0.28319123 0.023349952 -0.3791143 -0.13065383 -0.022761293 0.06714364 -0.076916456 0.11815163 0.22515361 0.2796109 -0.06949106 -0.11137991 -0.23406057 -0.09815127 -0.26730046 0.11197678 -0.23713152 -0.35614863 -0.0480637 -0.2273676 0.09707665 -0.085813455 0.03736092 -0.14715923 -0.1473726 -0.30503955 0.07648261 0.15032935 -0.026830966 -0.16025515
28 -0.17393224 -0.13253494 -0.066006996 -0.12677497 0.021691015 0.19080822 0.28139633 -0.13020189 -0.1737338 -0.024617136 0.027088653 0.36103952 0.18610416 0.23621245 -0.31715485 -0.18478152 -0.009407977 -0.20099717 0.25543773 0.29998007 -0.2707325 -0.11485712 -0.2846641 0.3142542 0.20139945 -0.05943363 -0.23588562 0.18971826 0.06655794 0.12897734 0.068983056 -0.017658742 0.15772665 -0.09805347 -0.17958736 -0.03388559 0.030712033 0.24353507 0.24830359 -0.36884364 -0.038757797 -0.08046301 0.09533066 -0.16134898 -0.23343113 -0.114788175 -0.11055629 0.020175572 -0.13872293 -0.08773225 -0.13577098 0.035207056 -0.1562721 -0.0285696 0.0940043 0.0035101357 0.032280188 -0.4086061 -0.29339626 -0.057123754 -0.22824228 -0.24298158 0.027920809 -0.06138091 -0.07354022 0.023795297 -0.37163934 0.18951373 -0.23398279 -0.10806292 -0.18439172 -0.051524602 -0.1096295 -0.32463282 -0.09269432 -0.009865971 0.15483715 -0.104858525 0.18730676 0.34637552 -0.15672621 -0.12115038 0.014388091 0.27054256 0.16701014 0.05333212 0.22361785 -0.0882254 0.09739155 -0.1894656 -0.30207476 -0.0933549 0.1296437 0.21414074 -0.121601254 0.09398712 -0.04496845 0.19470401 -0.01735188 -0.012424976 -0.39738864 0.27654076 -0.16675252 -0.07514484 -0.0052643255 0.48136806 -0.020925298 0.17436509 -0.13549492 0.32738543 0.16938178 -0.2774086 -0.13957776 -0.2584041 -0.17463486 -0.10807056 -0.1325705 0.21921638 -0.087785415 0.4071517 -0.025333418 -0.03136881 -0.17677358 0.07021347 -0.07326605 0.09359284 -0.14575171 0.18525168
41 -0.18199584 -0.21276906 -0.2748237 -0.08007608 0.33949813 -0.14097403 -0.11189951 -0.1519158 0.010119788 -0.24016878 0.03800175 0.16409926 0.10026695 0.01649899 -0.1179959 -0.2371415 -0.24644318 -0.020601189 0.14889173 -0.030791188 -0.036933284 -0.14499159 0.22670735 0.046844263 -0.05267537 0.118603624 -0.18561304 -0.028851336 -0.10673093 0.077678725 -0.060564246 0.25757024 -0.20306218 0.05866695 0.0024909682 0.10888307 -0.017733745 0.12005052 -0.034895208 -0.10274108 -0.07030353 -0.06536424 0.05941882 -0.07190459 -0.22733784 0.114670314 -0.027697794 0.10183384 0.099689215 -0.0750101 -0.34716928 0.041650947 -0.034486543 -0.03491601 -0.13570514 -0.19701499 0.26687086 6.419601e-05 -0.24863389 -0.017318435 0.10055975 -0.03532853 -0.12034879 0.27125004 -0.16240878 -0.005840143 -0.06504352 -0.070430435 0.09795171 0.15373409 -0.0012707466 0.11564345 -0.0055913557 -0.08142684 0.031459842 0.05262416 0.21155216 -0.03783569 0.14596428 0.31218362 -0.014284922 -0.021420103 -0.14559518 0.021386636 0.05100239 0.1614161 -0.006279753 -0.0762106 -0.06956304 -0.19986989 -0.02596407 -0.18039423 0.007323952 -0.084878914 0.10705546 0.11004502 -0.14678314 -0.20352812 0.24908519 -0.023721382 -0.33732727 -0.15629639 0.07660592 0.10394677 -0.019221814 0.0989305 0.2066093 0.19201237 0.004071067 -0.046308037 -0.2852823 -0.14926152 -0.3353248 0.12962435 -0.20160499 -0.34488842 -0.076162875 -0.22428542 0.16805941 -0.13201429 -0.0041972334 -0.10362335 -0.1603182 -0.26757288 0.08098405 0.23819709 -0.034312256 -0.20626462
45 -0.12642342 -0.20926589 -0.16274853 -0.19232555 0.05620136 0.10566746 0.30362713 -0.11560328 -0.122482486 -0.09279959 0.052481588 0.5017764 0.3735566 0.2557256 -0.35492572 -0.29511783 -0.13864265 -0.19397265 0.29211822 0.3746997 -0.21377285 -0.20592576 -0.31342143 0.37909812 0.23828885 -0.05678249 -0.3210055 0.1062469 0.08094401 0.13506673 0.0839652 -0.029022608 0.09697729 -0.13954866 -0.309912 -0.081015676 0.006039689 0.27850723 0.2669509 -0.38637444 0.008677059 -0.020666573 0.13496666 -0.1918206 -0.30247647 -0.087338395 -0.16549836 0.06100702 -0.1745067 -0.100076936 -0.07894708 0.005638209 -0.11966312 -0.009175933 0.049212996 0.0013573321 0.044291377 -0.33774397 -0.17962997 -0.07845552 -0.19754305 -0.24159808 0.04388211 -0.07797437 -0.053359613 0.066826224 -0.3421987 0.26950285 -0.05100002 -0.018728914 -0.115370534 -0.16049467 -0.04682233 -0.4009871 -0.25508022 -0.022797603 0.30610988 -0.17538461 0.2918362 0.25859523 -0.16240458 -0.12539089 -0.08105528 0.281919 0.12733892 -0.060134053 0.26316783 0.023511058 0.18672247 -0.13982677 -0.31196135 -0.10647171 0.009213912 0.2195053 -0.08799109 0.11553561 -0.07443501 0.0329907 0.06585334 0.031760205 -0.26708844 0.22234431 0.017401623 -0.08631267 -0.0408883 0.3428481 -0.079242356 0.1374155 -0.13426292 0.35331866 0.05552367 -0.26318452 -0.08351436 -0.23901476 -0.18916073 -0.16301717 -0.06767524 0.14443175 -0.052124895 0.3191563 0.06576266 0.028624976 -0.11789681 0.01702583 -0.053264376 0.19778197 -0.013337037 0.14234279
51 -0.24617395 -0.08360616 -0.14018264 -0.09532759 0.1730037 -0.09134635 0.047124244 -0.08761617 0.06537011 0.24128234 0.46403876 0.3010465 0.1720334 0.30594125 -0.29510245 0.012554159 -0.08377499 0.13276592 0.13197537 -0.11556453 -0.28463644 -0.4426505 0.029233774 0.12513322 0.22223254 0.10243656 -0.083325885 0.20006783 0.5564504 0.5703629 -0.03918578 0.4749525 0.30325723 0.26960105 -0.28853837 -0.3429616 0.10498662 0.18023215 -0.059142113 0.14104451 -0.12684421 0.005169162 -0.22969776 -0.16614316 -0.33577767 -0.040100552 -0.24737889 0.19325078 -0.17285866 -0.1141291 -0.33968607 -0.22257313 0.33825576 -0.45272076 0.061669603 0.13139851 0.1551351 -0.8001612 0.035172544 0.04820823 0.31341583 -0.36385247 -0.59460294 0.14678825 0.2556569 0.3133269 -0.20129599 0.37505 -0.21088131 0.47844878 0.17193475 -0.39569727 0.17944482 -0.58944553 -0.35740817 -0.118948355 0.12500899 -0.34742692 0.0018105414 0.049850047 0.10514366 -0.38147023 -0.12222813 0.0418916 0.31140712 0.1115153 0.18025227 -0.1426712 -0.068005376 -0.033687655 -0.26776132 -0.029370997 0.0041415137 0.07656811 -0.021653937 -0.15440333 -0.1486129 -0.02436719 -0.0353773 -0.09455722 -0.29881373 0.3343779 -0.10222086 0.5343314 0.17976502 0.057554618 0.3431715 0.37358555 -0.19948453 0.64630663 0.3630618 -0.15008584 -0.14713925 -0.22982188 0.12566595 -0.059510075 0.07539147 0.1171225 -0.39431307 -0.012670581 0.30492747 0.22199889 -0.19288556 0.605585 0.05428706 0.23249698 -0.3202018 0.037315305
2 -0.109756134 0.25867483 0.005771863 -0.17747118 0.072557956 -0.022185145 0.065652736 0.067242235 -0.1561204 0.011906116 0.430687 0.20462336 0.18765362 0.1759359 -0.4530205 -0.26393673 -0.08057721 0.17217723 -0.03306106 0.14461389 -0.074691094 -0.3340265 0.28550947 -0.19863242 0.004925638 0.07034597 -0.51051754 0.20496139 0.35831013 0.4340641 0.16336408 0.12910877 -0.057879042 0.30018386 -0.302462 -0.031495415 0.1681759 0.12725662 -0.23573092 0.054652624 -0.104862906 -0.041396353 0.01945926 0.028636156 -0.19332227 0.22820225 0.06529101 -0.16855927 0.031908773 -0.17609651 -0.19998161 -0.30517116 0.20479324 -0.2715986 -0.27931067 0.030656455 0.2893825 0.0101457555 -0.20815463 0.13512452 0.006030046 0.30954698 -0.3270906 0.066899754 0.116176546 0.23132165 0.13513622 -0.05498343 -0.081696466 -0.009525866 0.25082096 -0.03395989 0.1759114 -0.11572791 0.17137286 0.23423667 0.048517052 -0.11719663 0.2886114 0.2442157 0.19745606 -0.13635604 -0.15196986 0.22552064 0.14498173 0.3543168 0.35059053 -0.17255825 -0.13779609 -0.21883124 -0.10808063 0.30771133 -0.0102826655 -0.14115399 -0.41477248 -0.08731459 -0.27132356 -0.07375203 0.14402503 0.14515369 -0.13508171 0.28221583 -0.14927967 0.27825338 -0.050326724 -0.10392754 0.37350702 0.49870512 -0.14804886 0.07372838 -0.12732224 0.093185894 0.09958788 0.022420947 -0.17265211 0.15723538 -0.16500048 0.032202635 -0.117316976 -0.5222345 0.21137615 -0.31064698 -0.2914892 -0.033482816 -0.021131754 0.13875002 0.08353726 -0.10438701
33 -0.17798404 -0.12642792 -0.1666631 0.011061333 0.14718562 -0.15603192 0.14196903 -0.0782794 0.041161984 0.2591717 0.51443154 0.31862086 0.25907016 0.31107917 -0.24930716 -0.1330789 -0.16245598 0.12530798 0.18433303 -0.037238937 -0.28036058 -0.40037432 0.18603645 0.18669166 0.20900773 0.14275335 -0.18522091 0.26810429 0.42535943 0.6995733 0.009383642 0.52825606 0.22679392 0.33426604 -0.22739157 -0.31906325 -0.017014654 0.15252809 -0.059563454 0.11727223 -0.028075634 -0.019175425 -0.0659962 -0.15313797 -0.34430298 -0.049668867 -0.2915597 0.0639816 -0.18779851 -0.11405053 -0.3782878 -0.107028775 0.26018178 -0.4312053 -0.025361568 0.19428106 0.17666902 -0.60598415 0.044077195 0.087280996 0.25006193 -0.42275268 -0.5515454 0.1996396 0.23314215 0.12496672 -0.12940793 0.2384294 -0.16219018 0.4929686 0.13120559 -0.29904923 0.2015709 -0.54699695 -0.43848178 -0.18757384 0.09427416 -0.21731389 0.07156167 0.116796955 -0.0001896128 -0.21772154 -0.11042671 0.14307769 0.35451016 0.14589116 0.11109176 -0.11790492 -0.054690268 0.054436307 -0.16154382 -0.07468005 0.0013343827 0.10835269 0.039959814 -0.05449661 -0.22792716 -0.05457431 0.12757123 -0.14986907 -0.3288176 0.25419763 -0.10972277 0.41988048 0.13440837 0.07847344 0.39145032 0.4975319 -0.19334567 0.55467486 0.2853811 -0.29178998 -0.19673826 -0.22108357 0.0025209861 -0.1423767 0.083133206 0.014478417 -0.39525908 0.0689392 0.30688056 0.1954881 -0.096507065 0.495848 0.10611781 0.22718254 -0.35556507 0.09639696
39 -0.12132329 0.20153685 -0.07719737 -0.19180691 0.1994521 -0.03897195 -0.01638395 0.05809236 -0.16020662 0.064208984 0.35846514 0.11173589 0.14061214 0.086212456 -0.44551873 -0.28852504 -0.029109329 0.24295315 -0.10151903 0.08274682 0.0025534574 -0.24388036 0.3373462 -0.15081027 0.014785778 0.0107603045 -0.50929964 0.17974514 0.38198215 0.47540826 0.14319728 0.1140166 -0.07152715 0.27191937 -0.35268402 -0.10821041 0.23627712 0.1322332 -0.32543236 0.04170841 -0.17073034 0.0551927 -0.021101704 -0.003881935 -0.20577195 0.3056995 0.0686705 -0.19143741 0.062030185 -0.16156605 -0.17253745 -0.30561307 0.24909286 -0.29916903 -0.28083673 0.0013246565 0.318994 -0.107369855 -0.19049704 0.23985189 -0.0055761146 0.29665586 -0.33033305 0.077923514 0.22298375 0.22421806 0.1047516 0.08053361 -0.09676607 -0.07461997 0.3128209 -0.07723251 0.07174851 -0.17873894 0.060479622 0.2122441 0.081803784 -0.08770816 0.23541415 0.16793086 0.1979182 -0.18179648 -0.17292456 0.15839481 0.1759558 0.3374629 0.34746334 -0.09616276 -0.20712054 -0.06946333 -0.085839696 0.29163015 -0.004086194 -0.20002119 -0.42577198 -0.09871437 -0.34461978 -0.03777914 0.11040072 0.1312307 -0.14821635 0.39336303 -0.18023919 0.31560907 -0.021816991 -0.11135414 0.3574332 0.53208065 -0.085046574 0.0739362 0.0078818705 0.20426384 0.07983355 0.022769136 -0.13109714 0.17592923 -0.07150298 -0.082873836 -0.11696666 -0.4266241 0.25112304 -0.29127774 -0.25855368 0.007316499 0.0580012 0.19200964 0.1045674 -0.09296946
52 0.3678099 0.5896155 -0.35529706 -0.6179185 -0.4050155 -0.084214345 -0.23111762 -0.043515753 0.26080102 -0.26672286 -0.0318455 -0.40760303 0.32509208 0.19828025 -0.4575325 0.113783665 0.10081949 -0.3778122 0.046324003 0.5187435 -0.11560366 -0.26857403 0.051230226 -0.001215262 0.04204889 0.35360825 0.086752184 0.27778733 0.10565323 -0.024083309 -0.033974253 0.22786053 0.062425364 -0.4288262 -0.16029033 0.09860913 -0.5556219 0.06871582 -0.040880967 -0.17554188 -0.06054416 -0.33775803 -0.7109989 -0.079807274 0.07248541 0.0045884782 -0.2718586 0.5938624 0.022475779 0.3259748 -0.36662656 -0.10195404 -0.3406185 -0.41415918 0.41816437 -0.15721913 0.34345463 -0.089402184 -0.039963458 -0.43945175 -0.46820125 0.37310612 -0.037157033 -0.25211236 -0.103139415 0.082154736 -0.003241416 -0.007972211 -0.4551783 0.5198702 0.002989036 0.11793259 0.29058403 -0.20392849 0.4214426 -0.2834341 -0.590233 -0.24222285 0.5987959 0.14872067 0.22489406 0.029389849 0.44496623 -0.012413641 0.1427664 -0.1458737 0.14780553 -0.43972057 -0.4169704 -0.46238354 -0.3140197 -0.2100601 -0.11754962 0.041007463 -0.30047554 0.06272159 0.54304105 0.5860423 -0.12011367 0.078380704 0.17709716 0.24497046 0.02109822 0.30958638 0.2993694 0.49387437 0.016942156 -0.08133716 -0.051678527 0.48951694 -0.08339549 -0.2805547 -0.22308162 0.2674682 -0.30193034 -0.1019721 -0.16029766 -0.08688071 0.25389385 -0.3461215 0.13459675 0.050766155 -0.89459026 -0.08190506 0.120140895 -0.03232537 -0.3878176 -0.6696
17 0.3565415 0.6097019 -0.19158705 -0.49940172 -0.5637153 -0.04881323 -0.11841263 -0.06920289 0.25404122 -0.12408387 0.14056626 -0.37090936 0.3203703 0.18650188 -0.4938517 0.10165638 0.10969619 -0.3976823 0.0017469804 0.48843527 -0.09890025 -0.27245486 0.090560056 0.07783555 0.15052626 0.2619343 0.13499872 0.32899982 0.15125874 0.0230963 -0.09294576 0.097421005 -0.017089155 -0.42936602 -0.10264067 0.1532677 -0.5861466 0.15855967 0.030378832 -0.19383536 -0.07446096 -0.35476556 -0.68452376 -0.0050813183 0.15624762 0.014104889 -0.1990138 0.48666018 0.062499307 0.34107643 -0.41231322 -0.12456556 -0.3278974 -0.45874947 0.41488928 -0.12674889 0.30954123 -0.0826316 0.010734628 -0.33251995 -0.45709023 0.36146423 -0.08283967 -0.45733544 -0.07679762 0.036128487 -0.047529966 -0.21047537 -0.4480329 0.54054713 0.029533338 -0.015274227 0.42894432 -0.22209421 0.4630919 -0.34155306 -0.6884165 -0.20852417 0.611186 0.057160817 0.11489038 0.012522943 0.3837517 0.059143852 0.0997325 -0.11027697 0.13686126 -0.63035864 -0.4544903 -0.47040623 -0.4017897 -0.18362044 -0.0967746 0.17791852 -0.47601658 0.15175387 0.4800073 0.5836217 -0.049394153 0.115831 0.13700628 0.34695444 -0.017545618 0.353116 0.21043746 0.43666217 0.15134507 0.024735127 -0.013837573 0.5393383 -0.007263392 -0.40670598 -0.1211448 0.31366095 -0.29938433 0.04381723 -0.24612887 0.06762918 0.11325377 -0.2920149 0.12641007 0.098973274 -0.85505956 -0.034465864 0.06404112 -0.03529896 -0.38968766 -0.4882017
24 -0.10150916 -0.060713917 -0.0030159093 -0.16418175 -0.3616601 -0.25132847 0.35444215 -0.08917688 0.036928613 0.17866297 0.040522594 0.29505464 -0.05868574 0.23872013 -0.04071283 -0.23747349 -0.12989403 -0.06839895 -0.20778222 0.14360015 0.29213724 0.024783405 -0.02815502 -0.07843297 -0.0033656613 0.2351727 -0.18347484 0.22680052 -0.014737401 0.0042493874 0.36194816 0.1272224 0.23846103 0.041015882 -0.02104708 -0.048854113 0.09071726 0.19179836 0.09414711 0.068015374 -0.14226612 0.34738252 0.22303255 0.2156704 -0.22139479 0.061987568 0.04202013 0.14880091 -0.39973855 -0.1384581 -0.07550931 0.102000706 0.09493152 -0.30086115 0.35355288 -0.21928848 -0.11453829 -0.026060771 -0.17838487 -0.30432323 0.10574731 -0.02661256 0.09150071 0.1569814 -0.3719259 -0.020550031 -0.18940106 0.22734989 0.23164225 0.12186647 0.02727271 0.30938366 0.04952263 -0.10666365 0.22066972 -0.14068554 -0.18324885 -0.18016364 0.015469255 0.20084444 0.2295446 0.006250769 0.14570686 -0.06918874 -0.015332477 0.0104640685 0.356507 0.23469841 0.08008736 0.4209592 0.29563776 0.15636685 -0.12690598 0.00080194324 -0.022350695 -0.1860204 0.36668295 0.38654572 -0.15660474 0.09138826 0.37857398 0.36419967 -0.27576095 0.08860379 0.30465955 0.2624134 0.44800672 0.12544522 -0.33069494 0.35734165 -0.033841603 -0.12229517 -0.10644177 -0.108967446 -0.13401338 0.16306613 -0.17680894 0.2740373 0.024017986 -0.04287163 0.16213802 -0.21082164 0.044209585 0.33825117 0.048491012 -0.0867049 -0.031957123 0.1789964
38 -0.13296822 0.18780486 -0.05650222 -0.14454055 0.16139458 -0.05023107 0.00978036 0.034452986 -0.105042055 0.06983724 0.37966523 0.15964238 0.1692366 0.104681455 -0.45543814 -0.23746407 -0.019844191 0.22437942 -0.080131635 0.1165389 -0.057654828 -0.26619503 0.33841148 -0.17463113 0.038872495 0.037942354 -0.45304433 0.16395208 0.3741366 0.45162567 0.099494755 0.10730005 -0.10304327 0.25044492 -0.3060925 -0.051681325 0.170293 0.10070053 -0.2837168 0.006995076 -0.12258171 -0.016251098 0.017324023 0.017281821 -0.19058032 0.22864187 0.090502605 -0.18175715 0.07516302 -0.19076858 -0.14711148 -0.3053088 0.18900271 -0.30533442 -0.29370797 0.013693421 0.36580002 -0.04807375 -0.21536678 0.20900306 -0.049027517 0.29503533 -0.31037486 0.01544847 0.21036248 0.24457805 0.0985601 0.040354066 -0.14172567 -0.027762648 0.2977643 -0.086902484 0.13425595 -0.18348946 0.045415066 0.21248043 0.075885475 -0.045291573 0.2908327 0.20523492 0.17011161 -0.2027333 -0.17031135 0.24744377 0.14117351 0.30117583 0.29114538 -0.12505075 -0.19002438 -0.14378738 -0.1713217 0.28505424 -0.03351763 -0.14666508 -0.4441991 -0.090314165 -0.3328185 -0.038244203 0.13156731 0.18627287 -0.1834806 0.33998504 -0.11067954 0.26876408 -0.07331069 -0.12906684 0.33108893 0.54381776 -0.075181894 0.09043632 -0.009012122 0.13970648 0.101163186 0.06360954 -0.13151713 0.11383499 -0.11518649 -0.065915756 -0.13029501 -0.38570434 0.24528956 -0.2774847 -0.28036493 0.015125433 0.022099908 0.19597517 0.081168905 -0.044910807
4 -0.09336753 0.177642 -0.15134062 -0.094277866 0.20619 -0.16136047 0.02392762 0.079546556 -0.05058647 -0.08721198 0.34557784 0.1865109 0.114755355 0.18127894 -0.337796 -0.24365366 -0.15227662 0.17388609 -0.07024222 0.09442729 0.036052555 -0.26687497 0.30917102 -0.2181196 -0.010670806 0.0577411 -0.5223 0.118016966 0.19717717 0.41724202 0.12614377 0.18789014 -0.074357934 0.2721429 -0.20525213 0.02184647 0.1627109 0.13122928 -0.328336 0.045370672 -0.053465735 -0.05981767 -0.05314142 0.012998444 -0.12446228 0.23221537 0.1225864 -0.104178116 0.081238344 -0.18428582 -0.22897807 -0.30008847 0.23103055 -0.21855578 -0.2725244 -0.048765697 0.35774204 0.02531848 -0.11845914 0.041927442 0.092283286 0.30704984 -0.27416644 0.091476165 0.13211538 0.24416274 0.123950765 -0.06424666 -0.035333626 0.017618857 0.18849139 -0.037866425 0.10425516 -0.12110201 0.11318097 0.24742031 0.036177505 -0.13389699 0.22282118 0.19475058 0.19339956 -0.07548526 -0.13453868 0.2591351 0.16096994 0.2565895 0.2884927 -0.12097553 -0.12031448 -0.13376422 -0.08674748 0.17417878 -0.016493084 -0.18341395 -0.34641063 -0.016256584 -0.32396445 -0.15770273 0.20714895 0.14629482 -0.19016568 0.19510156 -0.018579386 0.28926924 -0.1286683 -0.16302162 0.26012272 0.38859612 -0.09695912 0.035693567 -0.115012944 0.080571316 0.049714487 0.07820399 -0.21050844 0.060083114 -0.09530574 -0.016697677 -0.04226765 -0.37485918 0.25202513 -0.1530532 -0.29655245 -0.11497831 -0.010367553 0.13879752 0.099899165 -0.067551196
34 -0.11724746 0.11618509 -0.23382469 -0.071708255 0.11849088 -0.19992872 0.15870915 0.14220381 0.16485626 0.2714705 0.57482535 0.23238803 0.09954713 0.5492133 -0.06425931 0.10703944 -0.19882125 0.18182178 0.14465852 -0.046099477 -0.20523094 -0.54139787 0.13640843 0.08204377 0.30591205 0.060716998 -0.3291355 0.2957854 0.34800252 0.80081505 0.10475806 0.8108212 0.52955157 0.3929639 -0.2345651 -0.3696401 0.06217849 0.11230632 -0.29707024 0.43722346 -0.11652937 0.027994318 -0.3189243 -0.26375675 -0.22102009 0.07639776 -0.23356761 0.15619567 -0.31492797 -0.05816015 -0.33905548 -0.13352074 0.5216367 -0.5216895 0.056779534 0.049724933 0.11680209 -0.8613016 0.16215 -0.17172271 0.507881 -0.42138678 -0.685189 0.34183106 0.41182703 0.21889426 -0.08811847 0.17867127 -0.17663987 0.60678387 0.19295457 -0.36452928 0.26822296 -0.5695817 -0.3226147 -0.26659298 -0.1376232 -0.3919885 -0.1664653 0.07938024 0.2419957 -0.1625344 -0.016200935 0.056374904 0.44430646 0.16749792 0.13595586 -0.22525997 -0.14486656 0.057704832 -0.086796425 0.069968656 0.07540094 0.1484412 -0.087325506 -0.07947974 -0.16186258 -0.014884168 0.021070726 -0.28644317 -0.2826377 0.35071927 -0.22089562 0.5946528 0.15190655 -0.011945537 0.3540654 0.35100523 -0.19499387 0.6991983 0.44675818 -0.1781635 -0.21959893 -0.36033493 0.029485252 0.13139486 0.12553863 0.2403219 -0.48977622 0.09088428 0.42750734 0.37602767 -0.30593646 0.6706504 0.014740595 -0.003794032 -0.46480706 0.040885463
68 -0.23392162 0.020556858 0.048228927 -0.18746573 -0.17566206 -0.09042941 0.31523865 0.0140725775 0.040193606 -0.03491413 -0.031920675 0.28301463 0.017950881 0.18670805 0.019559346 -0.19349022 -0.1997736 -0.13718936 -0.16708487 0.2194213 0.17841575 -0.028555607 -0.018460216 0.008784016 0.029452277 0.03301166 -0.33716124 0.19162259 -0.053220805 -0.09698367 0.2762464 0.14753196 0.121463604 -0.024464425 -0.0055652345 0.055363357 -0.065237306 0.20477824 0.15505761 0.13726307 -0.066891074 0.23310481 0.1000743 0.004938634 -0.06629252 0.1723551 0.07108677 0.1526488 -0.38238046 0.02689754 -0.01841288 0.114913985 -0.014783556 -0.14071745 0.11216052 -0.25288215 -0.123985976 0.021792311 -0.17079116 -0.25067317 0.082609355 -0.018896103 0.11291659 0.029366067 -0.175829 0.012917071 -0.15884548 -0.04673432 0.28830603 0.19628368 0.050507717 0.10409769 0.11930855 -0.0665064 0.2599603 -0.047461897 -0.16041583 -0.11508042 0.0629693 0.06103281 0.21811303 0.111023135 -0.028536122 -0.073050015 -0.00091230124 -0.033698067 0.16736092 -0.024169223 0.048609182 0.20253754 0.17408958 0.23380591 -0.035288252 0.18381695 -0.16574265 0.09755419 0.26513252 0.28511354 -0.08275839 0.073820755 0.117486306 0.16335157 -0.23269086 0.064678416 0.08633433 0.09959652 0.22124603 -0.006341294 -0.14367388 0.21137753 -0.10077713 -0.023775246 -0.13343601 -0.019665683 -0.21692207 0.20567079 -0.20501143 0.26473996 -0.08505791 -0.0057827774 -0.02208656 -0.1501975 -0.04654658 0.18406838 0.03060968 -0.13844435 -0.07080236 0.051185112
42 -0.08041659 0.18659076 -0.34107202 -0.08642802 0.18183821 -0.20382008 0.16716303 0.19050448 0.181928 0.15496363 0.57624054 0.2478975 0.12840207 0.57808864 -0.09413882 0.05551025 -0.27571958 0.14268778 0.23155507 -0.009593011 -0.2526585 -0.60016495 0.16579401 0.14351048 0.33605662 0.11049667 -0.45418924 0.32437176 0.26777643 0.8807963 0.07432664 0.9049197 0.5150038 0.4050399 -0.21617062 -0.38986546 0.014508254 0.063556276 -0.32580248 0.3797186 -0.06959371 -0.055361476 -0.39850762 -0.28878626 -0.1816275 0.07781724 -0.28172937 0.18972455 -0.28983828 -0.04494165 -0.42212728 -0.1989056 0.48818874 -0.47160885 0.044462405 0.07559092 0.18180068 -0.853115 0.1593191 -0.25396267 0.4807252 -0.42946887 -0.69541085 0.39328015 0.45529455 0.227655 -0.047963236 0.15698907 -0.2327035 0.6194844 0.116028 -0.36660725 0.2729194 -0.5948913 -0.35077247 -0.22799142 -0.114165254 -0.44010973 -0.14030787 0.12996927 0.23525594 -0.099593595 -0.03828456 0.13960381 0.5188463 0.1875004 0.14550556 -0.26821256 -0.13733439 -0.0034115775 -0.08730753 -0.03812397 0.09741465 0.13298936 -0.11163794 -0.012103706 -0.2342474 -0.08528294 0.0788055 -0.32539433 -0.38245875 0.26279166 -0.19274476 0.559258 0.13881303 -0.0038146419 0.30101398 0.34562007 -0.2416268 0.70837194 0.42420426 -0.2384498 -0.2741243 -0.39404702 -0.09098893 0.086305805 0.11546776 0.22577392 -0.46562913 0.14782974 0.42004752 0.44892502 -0.41450864 0.55765516 0.041684344 -0.0476867 -0.48070443 0.0055288123
59 -0.10077816 0.17822021 -0.051425666 -0.102817036 0.24143502 -0.03188358 -0.004807276 -0.017632227 -0.17413412 -0.058902517 0.23269653 0.15169086 0.058196235 0.12385453 -0.3315616 -0.22486274 -0.11186608 0.13253245 -0.10764727 0.03318814 -0.016541533 -0.26619622 0.2906302 -0.28817117 -0.021783503 0.05214531 -0.50131625 0.11903484 0.2293001 0.37101144 0.0918348 0.23564807 -0.103115864 0.2351517 -0.17719352 0.06531814 0.18995805 0.123237 -0.29475194 0.0043500606 -0.11904873 0.0035404307 -0.0613737 -0.012193187 -0.1488869 0.24520518 0.14187717 -0.07441616 0.03704547 -0.14225706 -0.20074004 -0.27172482 0.1344091 -0.18540856 -0.18531282 -0.05093883 0.3384732 0.042035293 -0.19354871 0.06654171 0.042570475 0.36827603 -0.23582742 0.1846652 0.090775736 0.20641623 0.04362779 -0.0668013 0.0019797303 -0.008503404 0.24796358 0.015098556 0.08686894 -0.114656925 0.172844 0.24579056 0.037999738 -0.14883307 0.2455442 0.29531083 0.21265791 -0.12206091 -0.118243605 0.20698215 0.15692501 0.3021718 0.29870084 -0.05808595 -0.23630302 -0.18372259 -0.13945265 0.1997531 0.02388256 -0.22567376 -0.3145102 -0.08806878 -0.3129444 -0.047119733 0.102023 0.13220398 -0.116593815 0.20133169 -0.08136657 0.25596288 -0.09144556 -0.067311496 0.38501608 0.41063395 -0.0989672 0.031498335 -0.13925333 0.06346571 -0.015687281 0.11093751 -0.11262544 0.050223958 -0.15204874 -0.060806714 0.04580509 -0.43909535 0.12898563 -0.2950614 -0.2531236 0.008384683 0.05668428 0.066480935 0.12414538 -0.13038814
27 -0.21731171 -0.07891636 -0.12845972 -0.3375942 -0.21168432 -0.13371314 0.106826715 0.008953397 0.044247992 0.054171488 -0.03263773 0.20260409 -0.001143756 0.17388551 -0.057233702 -0.20205572 -0.13910674 -0.084030844 -0.1128422 0.10638961 0.2969854 0.013006279 0.014786414 0.069564424 0.022654222 0.053736422 -0.18288057 0.16401862 -0.103475265 -0.09729439 0.2219598 0.12668607 0.17229179 -0.04225345 -0.048723806 -0.12067623 -0.0020641873 0.18609434 0.023957105 0.21432859 -0.21673612 0.2777656 0.039615657 0.057141054 -0.13729537 0.26011595 0.11794852 0.13376294 -0.31977224 -0.007947963 0.02032506 0.1276754 0.07148982 -0.19355333 0.1738187 -0.33595124 -0.19805819 -0.10219085 -0.10575481 -0.27054968 0.05609325 0.0428114 -0.040762853 0.06758017 -0.11476979 -0.01859388 -0.14612055 0.08809663 0.21839637 0.07999488 -0.022662608 0.11610128 0.10578662 -0.11431641 0.1919383 -0.163923 -0.09014361 -0.13891274 -0.013852107 0.034113295 0.21116851 0.017320115 0.050578114 -0.19592704 -0.094873756 0.029023765 0.23425077 -0.0008031755 -0.029049337 0.26317653 0.19096363 0.10361987 -0.08679821 0.12759909 -0.085721515 -0.04936084 0.27865028 0.18903238 -0.072246276 -0.018185442 0.10203098 0.17846766 -0.16287531 0.06200039 0.16643894 0.18173595 0.19455232 -0.04814379 -0.18574893 0.15672426 -0.0034859534 0.040744334 -0.11905285 -0.013834009 -0.13662697 0.12116489 -0.16674903 0.2204448 -0.056277014 -0.020690754 0.07346287 -0.07303668 -0.066931784 0.09525562 0.017109664 -0.024477635 -0.066171825 -0.0020624562
35 -0.21550582 -0.02763719 0.028181044 -0.3096029 -0.4451282 -0.20543782 0.27828884 -0.07516396 -0.00038446765 0.22553582 0.002844595 0.27536216 -0.027982598 0.21384037 -0.18108398 -0.26499504 -0.055072654 -0.03559193 -0.23524812 0.1594379 0.3212293 0.05988998 0.03671268 -0.020788502 -0.05607608 0.28291297 -0.06989022 0.3114326 0.033679612 -0.05955201 0.38315344 0.046645593 0.22768079 0.032537676 0.047577687 -0.110553645 0.05828811 0.15888242 0.19976223 0.11658835 -0.22263572 0.3349254 0.21257143 0.25880197 -0.22917089 0.07802709 0.06093117 0.10846217 -0.41548783 -0.07897794 -0.013778623 0.069389544 0.048462156 -0.33221912 0.39439505 -0.25131375 -0.18820968 -0.06279965 -0.27029485 -0.2790285 -0.023454772 0.008406001 0.07367419 0.030283455 -0.3332522 -0.024152424 -0.17806557 0.25010467 0.15644471 0.08536969 -0.03340081 0.34014797 0.042112473 -0.08625569 0.3236995 -0.14063022 -0.18092473 -0.05868871 -0.042860925 0.1361308 0.26243067 -0.057672728 0.15103336 -0.22998948 -0.08467169 0.068354845 0.4163594 0.16312233 -0.028222559 0.49164164 0.33876607 0.15014824 -0.16934346 0.03531786 -0.12155368 -0.19997987 0.4235907 0.4905173 -0.19493502 0.14824505 0.34859073 0.36822927 -0.3821939 0.08000919 0.39611506 0.26379338 0.46860725 0.12966016 -0.30408633 0.31465146 -0.0028030658 -0.00917596 -0.08063153 -0.046890616 -0.11957291 0.16826962 -0.24909703 0.25549898 -0.058240872 -0.12259366 0.116016194 -0.33231834 0.048483454 0.29629698 0.06460695 -0.032199796 -0.08115422 0.09592791
3 -0.095786236 0.23427336 -0.02166516 -0.13091944 0.17927496 0.00932715 0.06115591 -0.025427353 -0.2088463 0.027895888 0.39752918 0.1374346 0.048517708 0.13222343 -0.39708927 -0.25042942 -0.050544012 0.15625706 -0.14054506 -0.0054930486 -0.05105073 -0.28934932 0.24064587 -0.2148357 0.03967474 -0.05269212 -0.5444607 0.14431965 0.36960727 0.4231395 0.117745765 0.13975248 -0.06717831 0.2423577 -0.3255354 -0.006397991 0.19417757 0.20341618 -0.30384213 0.027658021 -0.12941173 0.033523265 -0.10712755 -0.033491302 -0.13803017 0.24559374 0.1302594 -0.095597334 0.0138061065 -0.13625395 -0.21436805 -0.32515457 0.19740246 -0.26106083 -0.22041123 0.018122824 0.29817846 -0.08771357 -0.0816237 0.21168745 0.043434665 0.35585523 -0.34757105 0.08148087 0.14465114 0.23363669 0.052698873 -0.010057804 -0.046497554 -0.02424079 0.27331585 -0.14213642 0.14185074 -0.20095718 0.05796355 0.18479921 0.042858507 -0.22550382 0.2756569 0.13149744 0.1547664 -0.14519614 -0.15711598 0.24805859 0.21310069 0.31014726 0.31412885 -0.15012379 -0.19313307 -0.1974963 -0.20993106 0.25882733 0.057187606 -0.15105869 -0.38161516 -0.096366316 -0.2989101 -0.0322141 0.036040675 0.092291325 -0.10189998 0.3174201 -0.096689016 0.30027634 -0.082209185 -0.08573365 0.30288222 0.37936944 -0.08795459 0.16001974 -0.02281151 0.10474247 0.07889067 0.016544241 -0.08816445 0.22020774 -0.09706313 0.09444637 -0.07574661 -0.425092 0.15712835 -0.17140192 -0.2795449 0.12526871 0.022042872 0.1312863 0.07557841 -0.039000735
30 -0.18600166 -0.07178942 0.038723275 -0.08382016 -0.32403865 -0.25742835 0.41135067 -0.04821948 0.053318292 0.028644837 -0.12322527 0.34567484 -0.067039944 0.2204662 -0.07447156 -0.27033785 -0.15257218 -0.11790883 -0.2349198 0.1905598 0.30513033 0.033118103 -0.025161006 -0.09237855 0.0038588152 0.23999932 -0.21935697 0.29534736 -0.04730699 0.003985157 0.35982516 0.14855798 0.26677397 0.048255447 0.052267913 -0.021665972 0.11222584 0.17966887 0.104173645 0.050841697 -0.092057884 0.30863217 0.13887796 0.20879184 -0.14176254 0.06634769 0.104282536 0.19251521 -0.42859253 -0.088328995 -0.11697889 0.057072368 0.12050225 -0.23696107 0.36801818 -0.24287054 -0.15198034 0.029029664 -0.20456661 -0.40526384 0.07845641 -0.0018741543 0.13996667 0.10042134 -0.32548478 0.041416697 -0.23919587 0.20471211 0.18916394 0.1259178 -0.032763526 0.22762373 0.056246832 -0.071281716 0.29763564 -0.05887897 -0.213002 -0.26269433 0.032720547 0.16978903 0.264936 -0.032986883 0.13744852 -0.061884113 0.07218786 -0.03370214 0.37397534 0.23715276 0.09746858 0.44204107 0.2620375 0.12815896 -0.09354634 0.045551185 -0.1397738 -0.112285025 0.28021762 0.40633184 -0.14587435 0.21314828 0.32955307 0.30106282 -0.29030964 0.016382046 0.2590839 0.29857245 0.46841666 0.11329018 -0.46386552 0.39043248 -0.055329416 -0.17310272 -0.07259938 -0.12388025 -0.1810269 0.10834894 -0.18933572 0.34852764 -0.012362497 -0.026042964 0.09381428 -0.19263399 0.011605104 0.2554928 0.049382374 -0.15295169 -0.01837692 0.18105814
36 -0.13668557 -0.0040213177 0.033525936 -0.17800254 -0.3897811 -0.212245 0.3946391 -0.06458724 -0.0014846007 0.19245128 0.04080963 0.30782297 -0.024598662 0.24405834 -0.13011992 -0.2973653 -0.09989304 -0.06257041 -0.22238661 0.16810125 0.27272543 0.05993663 -0.014460478 -0.050793074 -0.017454233 0.22171818 -0.21298712 0.28259695 -0.017981974 0.039144184 0.4439575 0.04278769 0.24621211 0.0017795399 0.02304427 -0.027166184 0.08584074 0.22802868 0.10821971 0.011340762 -0.13590482 0.35107502 0.2757156 0.19278337 -0.21205525 0.039281484 0.08165198 0.092521615 -0.37650067 -0.10593419 -0.1153113 0.0996786 0.08946445 -0.29015732 0.35027394 -0.24345517 -0.11917898 -0.025228724 -0.21402773 -0.2708158 0.057443276 -0.035859812 0.12603843 0.056090508 -0.3929733 -0.0040811813 -0.17459187 0.22493449 0.16329965 0.044051986 -0.018201325 0.3397531 -0.0053146477 -0.056116022 0.3153592 -0.099245235 -0.20869549 -0.11014549 -0.008854783 0.18312913 0.20475225 0.0124446405 0.189884 -0.0744504 0.01904904 0.054376904 0.44962612 0.19203141 0.04938061 0.45500085 0.29231542 0.16935417 -0.09357282 -0.0013671683 -0.14391308 -0.18751855 0.35215384 0.39499846 -0.15648997 0.1744421 0.3633048 0.4236686 -0.35603938 0.051164288 0.2915369 0.27861217 0.45594174 0.17191586 -0.29513288 0.33397213 -0.04241911 -0.083025634 -0.08057439 -0.12173313 -0.17827453 0.22166187 -0.1911531 0.28549194 -0.0028840038 -0.09105243 0.17717792 -0.2840319 0.05569597 0.2596899 0.0068445792 -0.08078118 -0.0614751 0.2093428
32 -0.19422385 0.004157036 -0.28218853 -0.09100565 0.3457864 -0.1683173 -0.023326628 -0.12987632 0.025967088 -0.07058766 0.22700682 0.20453191 -0.043738283 0.24090923 -0.12414363 -0.17423213 -0.099223904 0.0046288157 -0.14948598 0.021011721 -0.023262741 -0.10325886 0.027205653 -0.3491908 -0.14050639 -0.03833971 -0.3789693 0.10489298 0.10965012 0.113744214 0.084805965 0.19757468 0.0917508 0.099465325 -0.11283523 0.25197303 0.048696253 0.28980055 -0.32145914 -0.013031126 -0.002714633 0.09107341 -0.062146567 -0.245289 -0.22521658 0.17280768 0.32839462 0.12884544 0.014790656 -0.18344323 -0.25090235 0.08557036 0.026249176 -0.096818864 -0.32906646 -0.2435945 0.3581316 0.03165893 -0.1973779 -0.041830204 0.12983848 0.28811157 -0.23144838 0.2004189 -0.11624732 0.15862541 -0.04890354 -0.06556441 -0.05333743 -0.120366715 0.06383039 0.15159439 -0.01897982 -0.08003811 0.12695368 0.2744906 0.013434536 -0.10692798 0.25472677 0.21863616 0.07789678 0.06740076 0.04658914 0.371039 0.017522866 0.15837786 0.1432843 -0.07460611 -0.07252985 -0.3086662 -0.18273002 0.2203507 0.13946551 -0.17274149 -0.0483895 -0.17556776 -0.119801104 -0.19132751 0.08965216 0.030846335 -0.21198332 0.006754539 -0.096348196 0.16507359 -0.18617095 0.08173454 0.18210152 0.092460096 0.12001887 -0.10856643 -0.16997269 0.059684515 0.001673456 0.27027228 0.017082801 0.0040952405 -0.03509803 -0.07204539 0.23718119 -0.37400934 0.09793792 -0.22273082 -0.2229689 -0.06763734 0.02340038 -0.10126442 -0.1766559 -0.088109165
48 -0.2273207 -0.100991555 -0.19543555 -0.01770828 0.30686927 -0.118798114 -0.03540272 -0.21047258 0.08019872 -0.14440003 0.08999166 0.30047607 -0.009260291 0.2736376 -0.01730787 -0.12849721 -0.074308254 -0.062673144 -0.011820167 0.11429262 -0.066570625 -0.20721406 -0.10718307 -0.3538641 0.0009767999 0.0069533284 -0.28021246 0.03053082 0.071663015 0.10047896 0.03154868 0.18124692 0.1357645 0.11913313 -0.101183094 0.18243799 0.053166233 0.1576322 -0.25877136 -0.022665618 0.00326371 -0.025910564 -0.044890355 -0.20731449 -0.087820426 0.13378218 0.2868445 0.10234411 -0.059728954 -0.16583519 -0.12974256 0.09188172 0.05276263 -0.14270516 -0.2368629 -0.12832358 0.24725458 0.06020377 -0.14541264 -0.23068352 0.21192276 0.15426362 -0.121025644 0.21045877 -0.05753308 0.22601551 -0.15280487 -0.045934174 -0.0002289897 -0.011465489 0.040078793 -0.0014092148 -0.023880042 -0.008236135 0.19925445 0.25978082 0.0016147206 -0.1341043 0.24064955 0.26436397 0.12358263 -0.039454225 0.03792285 0.36330688 0.046226464 0.03954661 0.10165134 -0.046060905 -0.015137799 -0.30652428 -0.30428898 0.21648178 0.07136607 -0.059031047 -0.0059588007 -0.1569311 -0.1930688 -0.2310078 0.23995802 0.073711924 -0.28628594 -0.058396745 0.050795056 0.13690376 -0.27018723 0.056212205 0.1703437 0.18617547 -0.056387268 -0.10259799 -0.22665522 -0.11639436 -0.12131564 0.1919688 0.00095186144 -0.10621895 -0.10175294 -0.06325034 0.16202119 -0.35916287 0.09611291 -0.21348399 -0.20414546 -0.05287804 -0.05550678 0.013181841 -0.110511795 -0.106105365
12 -0.13919622 -0.09536238 -0.1400383 -0.11515422 -0.053899612 -0.09665698 -0.013647879 -0.26578915 -0.10546269 0.1647514 0.4859184 0.19233654 -0.029139226 0.18270004 -0.07127725 -0.13264498 -0.32149792 -0.012552607 0.17630127 -0.23550893 -0.0015586755 -0.013431795 0.17723022 0.128695 -0.06674375 -0.04522142 -0.09028791 -0.031301342 -0.26150852 0.023605607 0.05804425 0.13928506 -0.22586477 -0.013427067 0.15366939 0.23214296 -0.17417742 0.39321142 0.0266354 -0.048282847 -0.1132631 -0.009377254 0.27256024 -0.01470602 -0.19772595 0.07565576 0.11162078 -0.0496521 0.031048845 -0.086338095 -0.44360563 0.2056907 -0.11048577 -0.17089039 -0.03877089 -0.29047292 0.12621278 -0.09745839 -0.06310183 0.095157504 0.19792573 -0.017779928 -0.23564588 0.15866846 -0.39858142 -0.21685636 -0.037357867 -0.3138444 0.20958123 0.08833324 -0.014956495 0.22415395 0.099516205 -0.09593864 0.10165272 -0.19779988 0.08113908 0.119617 -0.009033485 0.2869669 -0.19163679 0.21486203 -0.06734706 0.048241917 -0.12036668 0.29158524 0.062415756 -0.3110741 -0.15148845 -0.15228999 0.006367019 -0.14749174 0.013377387 0.051746793 0.1761646 -0.0058216867 0.11700149 -0.2838545 0.19392942 -0.19406518 -0.28454718 -0.028990539 -0.006848631 0.15645467 -0.08145263 0.028078174 0.19332626 0.10935335 0.27138153 -0.100435734 -0.15086994 -0.1871867 -0.25989798 0.19621427 -0.13618147 0.045637712 -0.17661779 0.14387438 0.034482397 -0.020299578 0.07261415 0.059053574 -0.048541456 -0.017450545 -0.106575266 0.20296375 -0.24489346 0.13228308
67 -0.09510432 -0.085865475 -0.13533281 -0.01942879 0.102282666 -0.13100633 0.071624815 -0.30108538 0.10780154 0.15518735 0.5170344 0.17027247 -0.037684053 0.024712617 0.042191066 -0.38354033 -0.20827217 -0.099149175 0.08315704 -0.11862117 -0.09823391 -0.17018627 0.16328432 0.04585259 0.1350861 0.05582775 -0.12922491 -0.05427554 -0.1249553 -0.0067035127 -0.053094182 0.03843244 -0.26874742 -0.0807253 0.08388515 0.21033625 -0.19580968 0.35500643 0.10331557 -0.103162944 -0.11633863 0.14106798 0.36177254 0.10582103 -0.19990875 0.021055697 0.055065714 0.019882943 0.08862065 -0.05394858 -0.41038245 0.19789197 -0.14485513 -0.19392794 -0.028630206 -0.23544915 0.22806233 -0.005059633 -0.13920012 0.05315687 0.24995354 -0.15804794 -0.1102415 0.1404625 -0.33192423 -0.19626771 -0.14078745 -0.2736299 0.26038733 0.13660567 0.004992698 0.20839384 0.14606965 -0.14704844 0.059010245 -0.26044217 0.029051531 0.16159105 0.10435639 0.28288183 -0.20843326 0.15824181 -0.21090403 0.22271162 -0.13134226 0.19644532 -0.07946839 -0.35698077 0.008570678 -0.119164005 -0.0363168 -0.12783071 -0.011712993 0.07522741 0.16551907 0.024649194 0.08243498 -0.21350525 0.20146486 -0.2801946 -0.1970851 0.020575257 0.06881837 0.12649521 -0.11314947 0.009809161 0.22928683 0.18477605 0.17686288 -0.1026643 -0.194111 -0.21382554 -0.40893233 0.20887268 -0.17288122 0.09963811 -0.26265407 0.017781403 0.06247264 0.036743876 -0.013939962 0.01738867 -0.06576226 0.006877027 -0.060465783 0.28600767 -0.0761899 0.18848915
